{"learner":{"attributes":{"best_iteration":"99","best_ntree_limit":"100","scikit_learn":"{\"n_estimators\": 100, \"objective\": \"reg:squarederror\", \"max_depth\": 4, \"max_leaves\": null, \"max_bin\": null, \"grow_policy\": null, \"learning_rate\": 1, \"verbosity\": null, \"booster\": null, \"tree_method\": null, \"gamma\": 0.2, \"min_child_weight\": 4, \"max_delta_step\": null, \"subsample\": 0.9, \"sampling_method\": null, \"colsample_bytree\": 0.5, \"colsample_bylevel\": null, \"colsample_bynode\": null, \"reg_alpha\": 0.5, \"reg_lambda\": 1000, \"scale_pos_weight\": null, \"base_score\": null, \"missing\": NaN, \"num_parallel_tree\": null, \"random_state\": 42, \"n_jobs\": null, \"monotone_constraints\": null, \"interaction_constraints\": null, \"importance_type\": null, \"gpu_id\": null, \"validate_parameters\": null, \"predictor\": null, \"enable_categorical\": false, \"max_cat_to_onehot\": null, \"eval_metric\": null, \"early_stopping_rounds\": null, \"callbacks\": null, \"_estimator_type\": \"regressor\"}"},"feature_names":["age","cement","water","fly_ash","superplasticizer","blast_furnace_slag"],"feature_types":["int","float","float","float","float","float"],"gradient_booster":{"model":{"gbtree_model_param":{"num_parallel_tree":"1","num_trees":"100","size_leaf_vector":"0"},"tree_info":[0,0,0,0,0,0,0,0,0,0,0,0,0,0,0,0,0,0,0,0,0,0,0,0,0,0,0,0,0,0,0,0,0,0,0,0,0,0,0,0,0,0,0,0,0,0,0,0,0,0,0,0,0,0,0,0,0,0,0,0,0,0,0,0,0,0,0,0,0,0,0,0,0,0,0,0,0,0,0,0,0,0,0,0,0,0,0,0,0,0,0,0,0,0,0,0,0,0,0,0],"trees":[{"base_weights":[1.9159523E1,3.5179283E-2,1.9177935E1],"categories":[],"categories_nodes":[],"categories_segments":[],"categories_sizes":[],"default_left":[1,0,0],"id":0,"left_children":[1,-1,-1],"loss_changes":[9.775E1,0E0,0E0],"parents":[2147483647,0,0],"right_children":[2,-1,-1],"split_conditions":[2E0,3.5179283E-2,1.9177935E1],"split_indices":[0,0,0],"split_type":[0,0,0],"sum_hessian":[1.221E3,4E0,1.217E3],"tree_param":{"num_deleted":"0","num_feature":"6","num_nodes":"3","size_leaf_vector":"0"}},{"base_weights":[8.72786E0,-6.761727E-2,9.505474E0,-5.562995E-1,5.16826E-1,9.680014E0,-9.631377E-2,-5.626182E-1,-1.941877E-3,-2.1701038E-2,9.753187E0,-1.0268084E-1,5.6058383E-3,-5.6562835E-1,-0E0,4.030878E-2,-4.2475507E-2,-5.769218E-2,3.5585918E-2],"categories":[],"categories_nodes":[],"categories_segments":[],"categories_sizes":[],"default_left":[1,1,1,1,0,1,1,1,1,1,0,0,0,0,0,0,0,0,0],"id":1,"left_children":[1,3,5,7,-1,9,11,13,15,17,-1,-1,-1,-1,-1,-1,-1,-1,-1],"loss_changes":[1.59815625E4,6.2311804E2,4.4011875E3,2.555359E0,0E0,1.66475E3,1.2906008E0,1.8331299E0,3.4549057E0,4.152709E0,0E0,0E0,0E0,0E0,0E0,0E0,0E0,0E0,0E0],"parents":[2147483647,0,0,1,1,2,2,3,3,5,5,6,6,7,7,8,8,9,9],"right_children":[2,4,6,8,-1,10,12,14,16,18,-1,-1,-1,-1,-1,-1,-1,-1,-1],"split_conditions":[5E0,3.54E2,1.7479999E2,3.1165E2,5.16826E-1,1.193E2,1.641E2,1.697E2,3.2735E2,5.9E1,9.753187E0,-1.0268084E-1,5.6058383E-3,-5.6562835E-1,-0E0,4.030878E-2,-4.2475507E-2,-5.769218E-2,3.5585918E-2],"split_indices":[0,1,3,1,0,1,1,3,1,0,0,0,0,0,0,0,0,0,0],"split_type":[0,0,0,0,0,0,0,0,0,0,0,0,0,0,0,0,0,0,0],"sum_hessian":[1.242E3,1.75E2,1.067E3,1.22E2,5.3E1,1.04E3,2.7E1,1.05E2,1.7E1,1.3E1,1.027E3,2.3E1,4E0,9.9E1,6E0,5E0,1.2E1,9E0,4E0],"tree_param":{"num_deleted":"0","num_feature":"6","num_nodes":"19","size_leaf_vector":"0"}},{"base_weights":[4.267612E0,1.4797512E-1,5.697235E0,1.0473863E0,-7.455795E-1,1.1008924E0,-5.0638203E-2,-7.909866E-1,4.98669E-2,-2.6699144E-2,1.1439734E0,-5.941435E-2,8.044168E-3,-8.0189747E-1,7.990564E-3,5.5435833E-2,-4.671606E-3],"categories":[],"categories_nodes":[],"categories_segments":[],"categories_sizes":[],"default_left":[1,1,0,1,1,1,1,1,1,0,0,0,0,0,0,0,0],"id":2,"left_children":[1,3,-1,5,7,9,11,13,15,-1,-1,-1,-1,-1,-1,-1,-1],"loss_changes":[1.2281785E4,2.067741E3,0E0,1.2759619E2,8.991156E1,8.9492065E1,1.0248094E0,1.8764954E1,5.9263325E-1,0E0,0E0,0E0,0E0,0E0,0E0,0E0,0E0],"parents":[2147483647,0,0,1,1,3,3,4,4,5,5,6,6,7,7,8,8],"right_children":[2,4,-1,6,8,10,12,14,16,-1,-1,-1,-1,-1,-1,-1,-1],"split_conditions":[2.577E2,1.7625E2,5.697235E0,1.46E1,2.2055E2,6.25E0,1.514E2,1.265E1,2.1345E2,-2.6699144E-2,1.1439734E0,-5.941435E-2,8.044168E-3,-8.0189747E-1,7.990564E-3,5.5435833E-2,-4.671606E-3],"split_indices":[1,2,0,4,2,4,1,4,1,0,0,0,0,0,0,0,0],"split_type":[0,0,0,0,0,0,0,0,0,0,0,0,0,0,0,0,0],"sum_hessian":[1.229E3,6.01E2,6.28E2,2.14E2,3.87E2,2.02E2,1.2E1,3.72E2,1.5E1,2.1E1,1.81E2,7E0,5E0,3.64E2,8E0,7E0,8E0],"tree_param":{"num_deleted":"0","num_feature":"6","num_nodes":"17","size_leaf_vector":"0"}},{"base_weights":[2.697954E0,-1.1979804E0,4.208473E0,-1.8190393E0,5.43671E-1,4.219389E0,-2.6751058E-3,1.0281911E-2,-1.833381E0,-1.6328341E-3,-1.8448359E0],"categories":[],"categories_nodes":[],"categories_segments":[],"categories_sizes":[],"default_left":[1,1,1,1,0,0,0,0,1,0,0],"id":3,"left_children":[1,3,5,7,-1,-1,-1,-1,9,-1,-1],"loss_changes":[1.8242965E4,2.5093403E3,9.7884766E1,5.2976074E1,0E0,0E0,0E0,0E0,2.2544434E1,0E0,0E0],"parents":[2147483647,0,0,1,1,2,2,3,3,8,8],"right_children":[2,4,6,8,-1,-1,-1,-1,10,-1,-1],"split_conditions":[2.1E1,8.35E0,2.4195E2,2E0,5.43671E-1,4.219389E0,-2.6751058E-3,1.0281911E-2,1.6055E2,-1.6328341E-3,-1.8448359E0],"split_indices":[0,4,2,0,0,0,0,0,2,0,0],"split_type":[0,0,0,0,0,0,0,0,0,0,0],"sum_hessian":[1.243E3,4.05E2,8.38E2,2.66E2,1.39E2,8.34E2,4E0,4E0,2.62E2,9E0,2.53E2],"tree_param":{"num_deleted":"0","num_feature":"6","num_nodes":"11","size_leaf_vector":"0"}},{"base_weights":[1.2767342E0,3.0615396E0,-1.2851902E0,5.97999E-2,3.1999676E0,-1.7662232E0,5.109063E-1,-8.2789786E-2,1.4785035E-1,3.3755095E0,1.5523453E-1,-1.823255E0,7.1782306E-2,-1.20466545E-1,3.61173E-2,-1.9108823E-1,3.6707374E-1,-1.8740574E0,1.8569248E-2],"categories":[],"categories_nodes":[],"categories_segments":[],"categories_sizes":[],"default_left":[1,1,1,1,1,1,0,1,0,0,1,1,0,0,0,0,0,0,0],"id":4,"left_children":[1,3,5,7,9,11,-1,13,-1,-1,15,17,-1,-1,-1,-1,-1,-1,-1],"loss_changes":[1.4100299E4,4.7434473E2,2.3000605E3,2.5958073E1,2.845078E2,2.8899023E2,0E0,9.119535E0,0E0,0E0,1.5320699E2,1.7542627E2,0E0,0E0,0E0,0E0,0E0,0E0,0E0],"parents":[2147483647,0,0,1,1,2,2,3,3,4,4,5,5,7,7,10,10,11,11],"right_children":[2,4,6,8,10,12,-1,14,-1,-1,16,18,-1,-1,-1,-1,-1,-1,-1],"split_conditions":[1.839E2,5E0,4.2E1,1.135E1,1.7565E2,1.105E1,5.109063E-1,1.7265E2,1.4785035E-1,3.3755095E0,8.25E0,2.247E2,7.1782306E-2,-1.20466545E-1,3.61173E-2,-1.9108823E-1,3.6707374E-1,-1.8740574E0,1.8569248E-2],"split_indices":[2,0,0,4,2,4,0,2,0,0,4,2,0,0,0,0,0,0,0],"split_type":[0,0,0,0,0,0,0,0,0,0,0,0,0,0,0,0,0,0,0],"sum_hessian":[1.223E3,6.06E2,6.17E2,9E1,5.16E2,5E2,1.17E2,5.5E1,3.5E1,3.85E2,1.31E2,4.93E2,7E0,3.5E1,2E1,8.6E1,4.5E1,4.63E2,3E1],"tree_param":{"num_deleted":"0","num_feature":"6","num_nodes":"19","size_leaf_vector":"0"}},{"base_weights":[1.1665826E0,-9.64021E-1,2.1708581E0,-1.0274343E0,6.904928E-2,-1.7226677E-1,2.7795322E0,-1.0302594E0,-7.208772E-4,3.274448E-1,-4.7989124E-1,-9.435402E-3,2.8047826E0,-1.3468552E-2,3.471839E-3],"categories":[],"categories_nodes":[],"categories_segments":[],"categories_sizes":[],"default_left":[1,1,1,1,0,1,1,0,0,0,0,1,0,1,1],"id":5,"left_children":[1,3,5,7,-1,9,11,-1,-1,-1,-1,-1,-1,-1,-1],"loss_changes":[6.8734756E3,1.636615E2,3.0843643E3,2.7735596E0,0E0,3.598217E2,1.340586E2,0E0,0E0,0E0,0E0,1.043364E-1,0E0,0E0,0E0],"parents":[2147483647,0,0,1,1,2,2,3,3,5,5,6,6,11,11],"right_children":[2,4,6,8,-1,10,12,-1,-1,-1,-1,-1,-1,-1,-1],"split_conditions":[2.35E0,2.804E2,1.61E1,1.8E0,6.904928E-2,9.995E1,3.5E0,-1.0302594E0,-7.208772E-4,3.274448E-1,-4.7989124E-1,-9.435402E-3,2.8047826E0,-1.3468552E-2,3.471839E-3],"split_indices":[4,5,5,4,0,3,4,0,0,0,0,5,0,2147483647,2147483647],"split_type":[0,0,0,0,0,0,0,0,0,0,0,0,0,0,0],"sum_hessian":[1.234E3,4.08E2,8.26E2,3.9E2,1.8E1,3.18E2,5.08E2,3.85E2,5E0,9.6E1,2.22E2,1E1,4.98E2,4E0,6E0],"tree_param":{"num_deleted":"2","num_feature":"6","num_nodes":"15","size_leaf_vector":"0"}},{"base_weights":[7.520823E-1,-9.841662E-1,2.378316E0,-1.8131354E0,1.012331E0,2.032571E-2,2.6323626E0,1.0246809E0,-9.774486E-3,-2.9436097E-1,3.2491824E-1,1.6851246E-3,-2.9885128E-1],"categories":[],"categories_nodes":[],"categories_segments":[],"categories_sizes":[],"default_left":[1,1,1,0,1,1,0,0,0,1,0,0,0],"id":6,"left_children":[1,3,5,-1,7,9,-1,-1,-1,11,-1,-1,-1],"loss_changes":[8.668921E3,4.800061E3,8.1377637E2,0E0,2.5254028E1,2.0579158E2,0E0,0E0,0E0,2.0998383E0,0E0,0E0,0E0],"parents":[2147483647,0,0,1,1,2,2,4,4,5,5,9,9],"right_children":[2,4,6,-1,8,10,-1,-1,-1,12,-1,-1,-1],"split_conditions":[3.1315E2,4.2E1,1.05E1,-1.8131354E0,3.0615E2,3.8925E2,2.6323626E0,1.0246809E0,-9.774486E-3,3.2435E2,3.2491824E-1,1.6851246E-3,-2.9885128E-1],"split_indices":[1,0,0,0,1,1,0,0,0,1,0,0,0],"split_type":[0,0,0,0,0,0,0,0,0,0,0,0,0],"sum_hessian":[1.241E3,7.91E2,4.5E2,6.24E2,1.67E2,1.49E2,3.01E2,1.63E2,4E0,8.9E1,6E1,9E0,8E1],"tree_param":{"num_deleted":"0","num_feature":"6","num_nodes":"13","size_leaf_vector":"0"}},{"base_weights":[6.528792E-1,-5.9900343E-1,1.4361581E0,-7.32937E-1,1.3882905E-1,-7.7467E-2,1.6844976E0,2.4485137E-1,-1.0939884E-1,-2.0616688E-1,1.2423803E-1,1.7072468E0,2.6519315E-2,2.4797273E-1,8.645596E-4,4.8975196E-2,-2.542776E-1,-5.759642E-2,8.410145E-2],"categories":[],"categories_nodes":[],"categories_segments":[],"categories_sizes":[],"default_left":[1,1,1,0,1,1,1,1,0,1,0,0,1,0,0,0,0,0,0],"id":7,"left_children":[1,3,5,-1,7,9,11,13,-1,15,-1,-1,17,-1,-1,-1,-1,-1,-1],"loss_changes":[3.0404963E3,2.563089E2,7.560303E2,0E0,5.5277298E1,5.6546432E1,9.378418E0,4.7379303E-1,0E0,2.610762E1,0E0,0E0,9.875127E0,0E0,0E0,0E0,0E0,0E0,0E0],"parents":[2147483647,0,0,1,1,2,2,4,4,5,5,6,6,7,7,9,9,12,12],"right_children":[2,4,6,-1,8,10,12,14,-1,16,-1,-1,18,-1,-1,-1,-1,-1,-1],"split_conditions":[1.61E1,1.1200001E1,3.5E0,-7.32937E-1,1.7454999E2,1.8695E2,1.604E2,1.363E2,-1.0939884E-1,8.55E1,1.2423803E-1,1.7072468E0,1.655E2,2.4797273E-1,8.645596E-4,4.8975196E-2,-2.542776E-1,-5.759642E-2,8.410145E-2],"split_indices":[5,4,4,0,3,5,3,3,0,5,0,0,3,0,0,0,0,0,0],"split_type":[0,0,0,0,0,0,0,0,0,0,0,0,0,0,0,0,0,0,0],"sum_hessian":[1.223E3,5.61E2,6.62E2,4.81E2,8E1,1.9E2,4.72E2,6.7E1,1.3E1,1.04E2,8.6E1,4.36E2,3.6E1,4.8E1,1.9E1,1.2E1,9.2E1,1.1E1,2.5E1],"tree_param":{"num_deleted":"0","num_feature":"6","num_nodes":"19","size_leaf_vector":"0"}},{"base_weights":[5.3733885E-1,-5.6111985E-1,1.7468958E0,5.001321E-1,-9.540613E-1,1.7810801E0,-4.586608E-3,-1.5533867E-1,6.730958E-1,-1.2039896E0,2.416582E-1,-2.2440366E-2,1.7113676E-2,-2.2144994E-1,6.451815E-2,6.811634E-1,-5.7637035E-3,-1.2294278E0,1.8001659E-2,-1.0250509E-1,3.4716335E-1,2.5823392E-2,-8.179058E-3],"categories":[],"categories_nodes":[],"categories_segments":[],"categories_sizes":[],"default_left":[1,1,1,1,1,0,1,1,1,1,1,0,1,0,0,0,0,0,0,0,0,0,0],"id":8,"left_children":[1,3,5,7,9,-1,11,13,15,17,19,-1,21,-1,-1,-1,-1,-1,-1,-1,-1,-1,-1],"loss_changes":[3.9250952E3,1.2772087E3,8.677295E1,2.3791623E2,8.126195E2,0E0,7.826556E-1,2.9729517E1,1.0381195E1,7.2784424E1,7.6885E1,0E0,4.4385034E-1,0E0,0E0,0E0,0E0,0E0,0E0,0E0,0E0,0E0,0E0],"parents":[2147483647,0,0,1,1,2,2,3,3,4,4,6,6,7,7,8,8,9,9,10,10,12,12],"right_children":[2,4,6,8,10,-1,12,14,16,18,20,-1,22,-1,-1,-1,-1,-1,-1,-1,-1,-1,-1],"split_conditions":[3.5545E2,1.6520001E2,2.123E2,2.0135E2,1.885E2,1.7810801E0,3.78E2,1.639E2,1.625E2,2.247E2,1.545E2,-2.2440366E-2,7.125E1,-2.2144994E-1,6.451815E-2,6.811634E-1,-5.7637035E-3,-1.2294278E0,1.8001659E-2,-1.0250509E-1,3.4716335E-1,2.5823392E-2,-8.179058E-3],"split_indices":[1,2,2,1,5,0,1,2,2,2,1,0,5,0,0,0,0,0,0,0,0,0,0],"split_type":[0,0,0,0,0,0,0,0,0,0,0,0,0,0,0,0,0,0,0,0,0,0,0],"sum_hessian":[1.216E3,9.18E2,2.98E2,1.74E2,7.44E2,2.76E2,2.2E1,5.7E1,1.17E2,6.1E2,1.34E2,6E0,1.6E1,4E1,1.7E1,1.13E2,4E0,5.92E2,1.8E1,3.7E1,9.7E1,1.1E1,5E0],"tree_param":{"num_deleted":"0","num_feature":"6","num_nodes":"23","size_leaf_vector":"0"}},{"base_weights":[5.194531E-1,-8.532797E-1,1.1871603E0,-8.735857E-1,1.9846896E-2,-4.0994915E-1,1.7810298E0,-7.4460274E-1,3.9402056E-1,1.8843567E0,-3.4599736E-2,-8.4963155E-1,8.424284E-2,2.0851318E-2,1.912683E0,-9.0754576E-2,5.719792E-2],"categories":[],"categories_nodes":[],"categories_segments":[],"categories_sizes":[],"default_left":[1,1,1,0,0,1,1,1,0,1,1,0,0,0,0,0,0],"id":9,"left_children":[1,3,5,-1,-1,7,9,11,-1,13,15,-1,-1,-1,-1,-1,-1],"loss_changes":[3.0534614E3,4.0990784E1,2.5480947E3,0E0,0E0,6.5194055E2,3.6328662E2,1.8399487E2,0E0,3.9228027E1,1.0708011E1,0E0,0E0,0E0,0E0,0E0,0E0],"parents":[2147483647,0,0,1,1,2,2,5,5,6,6,7,7,9,9,10,10],"right_children":[2,4,6,-1,-1,8,10,12,-1,14,16,-1,-1,-1,-1,-1,-1],"split_conditions":[1.9135E2,2.2055E2,2.1E0,-8.735857E-1,1.9846896E-2,3.985E2,1.9529999E2,2.0325E2,3.9402056E-1,2.1305E2,3.241E2,-8.4963155E-1,8.424284E-2,2.0851318E-2,1.912683E0,-9.0754576E-2,5.719792E-2],"split_indices":[1,2,4,0,0,1,2,2,0,1,1,0,0,0,0,0,0],"split_type":[0,0,0,0,0,0,0,0,0,0,0,0,0,0,0,0,0],"sum_hessian":[1.226E3,3.1E2,9.16E2,3.03E2,7E0,3.32E2,5.84E2,2.87E2,4.5E1,5.17E2,6.7E1,2.33E2,5.4E1,3.4E1,4.83E2,5.2E1,1.5E1],"tree_param":{"num_deleted":"0","num_feature":"6","num_nodes":"17","size_leaf_vector":"0"}},{"base_weights":[4.1005418E-1,1.0220476E0,-3.3045208E-1,-1.9703342E-2,1.0438387E0,-7.116755E-1,2.85637E-1,-3.6067568E-2,1.5784971E-2,-7.409745E-1,3.438788E-2,-1.0382657E-1,3.764361E-1,3.5380445E-2,-1.3950072E-1,4.0356162E-1,-1.7380962E-2],"categories":[],"categories_nodes":[],"categories_segments":[],"categories_sizes":[],"default_left":[1,1,1,1,0,1,1,0,0,0,0,1,1,0,0,0,0],"id":10,"left_children":[1,3,5,7,-1,9,11,-1,-1,-1,-1,13,15,-1,-1,-1,-1],"loss_changes":[1.3473264E3,5.4313354E1,6.1756537E2,1.1665938E0,0E0,5.5911682E1,8.826878E1,0E0,0E0,0E0,0E0,1.0177226E1,2.1543274E1,0E0,0E0,0E0,0E0],"parents":[2147483647,0,0,1,1,2,2,3,3,5,5,6,6,11,11,12,12],"right_children":[2,4,6,8,-1,10,12,-1,-1,-1,-1,14,16,-1,-1,-1,-1],"split_conditions":[1.7555E2,1.3255E2,1.98E1,1.57E1,1.0438387E0,2.247E2,1.793E2,-3.6067568E-2,1.5784971E-2,-7.409745E-1,3.438788E-2,6.7E1,2.1325E2,3.5380445E-2,-1.3950072E-1,4.0356162E-1,-1.7380962E-2],"split_indices":[2,2,5,4,0,2,2,0,0,0,0,5,2,0,0,0,0],"split_type":[0,0,0,0,0,0,0,0,0,0,0,0,0,0,0,0,0],"sum_hessian":[1.227E3,4.64E2,7.63E2,1.1E1,4.53E2,3.76E2,3.87E2,6E0,5E0,3.69E2,7E0,4.5E1,3.42E2,8E0,3.7E1,2.98E2,4.4E1],"tree_param":{"num_deleted":"0","num_feature":"6","num_nodes":"17","size_leaf_vector":"0"}},{"base_weights":[2.642571E-1,-3.6748362E-1,7.5737363E-1,-3.9547443E-1,4.2423636E-2,9.261033E-1,-9.491633E-2,-4.322322E-2,-4.628921E-1,-2.6136956E-1,1.5487382E-1,-3.3603084E-1,3.162731E-1,1.89018E-1,-2.750893E-2],"categories":[],"categories_nodes":[],"categories_segments":[],"categories_sizes":[],"default_left":[1,1,1,1,0,0,1,1,0,0,1,0,0,0,0],"id":11,"left_children":[1,3,5,7,-1,-1,9,11,-1,-1,13,-1,-1,-1,-1],"loss_changes":[9.6791504E2,3.580519E1,3.140943E2,1.8590897E1,0E0,0E0,8.901294E1,2.5018228E2,0E0,0E0,1.2086885E1,0E0,0E0,0E0,0E0],"parents":[2147483647,0,0,1,1,2,2,3,3,6,6,7,7,10,10],"right_children":[2,4,6,8,-1,-1,10,12,-1,-1,14,-1,-1,-1,-1],"split_conditions":[5.005E1,1.895E1,4.775E1,7.25E0,4.2423636E-2,9.261033E-1,1.173E2,1.8E0,-4.628921E-1,-2.6136956E-1,1.2985E2,-3.3603084E-1,3.162731E-1,1.89018E-1,-2.750893E-2],"split_indices":[5,4,3,4,0,0,3,4,0,0,5,0,0,0,0],"split_type":[0,0,0,0,0,0,0,0,0,0,0,0,0,0,0],"sum_hessian":[1.213E3,6.43E2,5.7E2,6.36E2,7E0,4.04E2,1.66E2,3.67E2,2.69E2,7.3E1,9.3E1,2.39E2,1.28E2,5E1,4.3E1],"tree_param":{"num_deleted":"0","num_feature":"6","num_nodes":"15","size_leaf_vector":"0"}},{"base_weights":[1.7779438E-1,-8.358984E-1,1.5830404E0,2.6745552E-1,-1.0245367E0,-6.423572E-2,3.3092406E-1,2.2782583E-2,-1.0392987E0,-1.1032151E-2,3.474435E-1,-1.053844E0,-2.9081115E-3],"categories":[],"categories_nodes":[],"categories_segments":[],"categories_sizes":[],"default_left":[1,1,0,1,1,0,1,0,1,0,0,0,0],"id":12,"left_children":[1,3,-1,5,7,-1,9,-1,11,-1,-1,-1,-1],"loss_changes":[4.4788745E3,6.783861E2,0E0,4.4042397E1,5.3019775E1,0E0,1.0028656E1,0E0,2.446106E1,0E0,0E0,0E0,0E0],"parents":[2147483647,0,0,1,1,3,3,4,4,6,6,8,8],"right_children":[2,4,-1,6,8,-1,10,-1,12,-1,-1,-1,-1],"split_conditions":[4.2E1,1.537E2,1.5830404E0,1.3255E2,2E0,-6.423572E-2,5E0,2.2782583E-2,2.2055E2,-1.1032151E-2,3.474435E-1,-1.053844E0,-2.9081115E-3],"split_indices":[0,2,0,2,0,0,0,0,2,0,0,0,0],"split_type":[0,0,0,0,0,0,0,0,0,0,0,0,0],"sum_hessian":[1.215E3,9.41E2,2.74E2,7.6E1,8.65E2,9E0,6.7E1,4E0,8.61E2,1.7E1,5E1,8.32E2,2.9E1],"tree_param":{"num_deleted":"0","num_feature":"6","num_nodes":"13","size_leaf_vector":"0"}},{"base_weights":[4.2309695E-1,-1.223607E-1,7.2963065E-1,2.2642915E-1,-2.8155947E-1,8.8756067E-1,-1.09439686E-1,3.1073803E-1,-8.271268E-2,-4.0261424E-1,6.655718E-2,-2.3901183E-2,9.75587E-1,3.2872763E-2,-1.3954951E-1,-4.061985E-1,2.5817559E-3,2.1698911E-1,-1.1644164E-1,-1.0998396E-1,9.165582E-2,-1.0061844E-2,9.9037594E-1,-1.7255756E-1,2.7273232E-2],"categories":[],"categories_nodes":[],"categories_segments":[],"categories_sizes":[],"default_left":[1,1,1,1,1,1,1,0,0,1,1,1,1,0,1,0,0,0,0,0,0,0,0,0,0],"id":13,"left_children":[1,3,5,7,9,11,13,-1,-1,15,17,19,21,-1,23,-1,-1,-1,-1,-1,-1,-1,-1,-1,-1],"loss_changes":[4.595979E2,1.5551129E2,3.0437842E2,5.3729885E1,9.35901E1,1.3804468E2,9.512765E0,0E0,0E0,3.161789E0,6.0140858E1,2.1041996E1,2.9740234E1,0E0,1.1012196E1,0E0,0E0,0E0,0E0,0E0,0E0,0E0,0E0,0E0,0E0],"parents":[2147483647,0,0,1,1,2,2,3,3,4,4,5,5,6,6,9,9,10,10,11,11,12,12,14,14],"right_children":[2,4,6,8,10,12,14,-1,-1,16,18,20,22,-1,24,-1,-1,-1,-1,-1,-1,-1,-1,-1,-1],"split_conditions":[5.005E1,1.569E2,1.9235E2,1.63E1,1.862E2,3.5E0,8.885E1,3.1073803E-1,-8.271268E-2,1.795E1,1.8965E2,2.804E2,1.3255E2,3.2872763E-2,1.86E2,-4.061985E-1,2.5817559E-3,2.1698911E-1,-1.1644164E-1,-1.0998396E-1,9.165582E-2,-1.0061844E-2,9.9037594E-1,-1.7255756E-1,2.7273232E-2],"split_indices":[5,2,2,5,2,4,5,0,0,4,2,5,2,0,5,0,0,0,0,0,0,0,0,0,0],"split_type":[0,0,0,0,0,0,0,0,0,0,0,0,0,0,0,0,0,0,0,0,0,0,0,0,0],"sum_hessian":[1.213E3,6.52E2,5.61E2,7.1E1,5.81E2,4.24E2,1.37E2,5.3E1,1.8E1,3.16E2,2.65E2,1.01E2,3.23E2,5E0,1.32E2,3.12E2,4E0,4.5E1,2.2E2,8.8E1,1.3E1,9E0,3.14E2,8.4E1,4.8E1],"tree_param":{"num_deleted":"0","num_feature":"6","num_nodes":"25","size_leaf_vector":"0"}},{"base_weights":[3.2945347E-1,-7.1317226E-1,9.518666E-1,2.3732932E-2,-7.3265654E-1,1.1185464E-1,1.214327E0,-7.4818027E-1,1.7328113E-2,4.3759257E-1,-3.023557E-1,3.8334213E-2,-3.3539206E-1],"categories":[],"categories_nodes":[],"categories_segments":[],"categories_sizes":[],"default_left":[1,1,1,0,1,1,0,0,0,0,1,0,0],"id":14,"left_children":[1,3,5,-1,7,9,-1,-1,-1,-1,11,-1,-1],"loss_changes":[2.1157263E3,3.7829407E1,2.6366162E2,0E0,2.9571411E1,3.3934967E2,0E0,0E0,0E0,0E0,2.725454E1,0E0,0E0],"parents":[2147483647,0,0,1,1,2,2,4,4,5,5,10,10],"right_children":[2,4,6,-1,8,10,-1,-1,-1,-1,12,-1,-1],"split_conditions":[2.1E1,2E0,4.2E1,2.3732932E-2,2.58E1,6.5E1,1.214327E0,-7.4818027E-1,1.7328113E-2,4.3759257E-1,4.3E0,3.8334213E-2,-3.3539206E-1],"split_indices":[0,0,0,0,4,3,0,0,0,0,4,0,0],"split_type":[0,0,0,0,0,0,0,0,0,0,0,0,0],"sum_hessian":[1.214E3,3.99E2,8.15E2,4E0,3.95E2,5.34E2,2.81E2,3.9E2,5E0,2.68E2,2.66E2,8E0,2.58E2],"tree_param":{"num_deleted":"0","num_feature":"6","num_nodes":"13","size_leaf_vector":"0"}},{"base_weights":[2.6507375E-1,-5.0790876E-1,7.115119E-1,2.3638379E-2,-5.2680415E-1,-3.6145593E-3,8.8809866E-1,-5.314845E-1,3.3316314E-3,-1.5062775E-1,1.7326255E-1,-5.490338E-1,-2.0149397E-2,3.1143133E-2,-2.0352283E-1],"categories":[],"categories_nodes":[],"categories_segments":[],"categories_sizes":[],"default_left":[1,1,1,0,1,1,0,1,0,1,0,0,0,0,0],"id":15,"left_children":[1,3,5,-1,7,9,-1,11,-1,13,-1,-1,-1,-1,-1],"loss_changes":[1.1258568E3,2.6705383E1,2.3361157E2,0E0,5.483734E0,6.134726E1,0E0,1.0811157E0,0E0,1.870261E1,0E0,0E0,0E0,0E0,0E0],"parents":[2147483647,0,0,1,1,2,2,4,4,5,5,7,7,9,9],"right_children":[2,4,6,-1,8,10,-1,12,-1,14,-1,-1,-1,-1,-1],"split_conditions":[2.1E1,2E0,1.43E1,2.3638379E-2,2.03E1,7.3E1,8.8809866E-1,1.05E1,3.3316314E-3,7.55E0,1.7326255E-1,-5.490338E-1,-2.0149397E-2,3.1143133E-2,-2.0352283E-1],"split_indices":[0,0,5,0,4,0,0,0,0,4,0,0,0,0,0],"split_type":[0,0,0,0,0,0,0,0,0,0,0,0,0,0,0],"sum_hessian":[1.215E3,3.94E2,8.21E2,4E0,3.9E2,3.56E2,4.65E2,3.85E2,5E0,2.77E2,7.9E1,3E2,8.5E1,1.53E2,1.24E2],"tree_param":{"num_deleted":"0","num_feature":"6","num_nodes":"15","size_leaf_vector":"0"}},{"base_weights":[1.9230643E-1,-7.270074E-1,7.191799E-1,-7.944435E-1,5.6596916E-2,-2.4009173E-1,1.014586E0,-7.988368E-1,1.058123E-3,-9.207744E-3,6.684828E-2,-3.809067E-1,1.4445724E-1,1.110839E0,-7.188266E-2,-1.6997775E-2,7.2622118E-3,-4.3847365E-3,7.2066486E-2,-3.8841966E-1,4.555723E-3,-0E0,1.49357E-1,-8.122203E-3,1.1213266E0,-9.869137E-2,2.5532812E-2],"categories":[],"categories_nodes":[],"categories_segments":[],"categories_sizes":[],"default_left":[1,1,1,1,1,1,1,0,0,1,1,1,1,1,1,0,0,0,0,0,0,0,0,0,0,0,0],"id":16,"left_children":[1,3,5,7,9,11,13,-1,-1,15,17,19,21,23,25,-1,-1,-1,-1,-1,-1,-1,-1,-1,-1,-1,-1],"loss_changes":[1.5918322E3,1.14081055E2,7.84093E2,5.665222E0,1.3432155E0,1.2320982E2,2.528153E2,0E0,0E0,2.5815034E-1,7.30463E-1,5.4250336E0,7.2437096E-1,2.8158813E1,5.358676E0,0E0,0E0,0E0,0E0,0E0,0E0,0E0,0E0,0E0,0E0,0E0,0E0],"parents":[2147483647,0,0,1,1,2,2,3,3,4,4,5,5,6,6,9,9,10,10,11,11,12,12,13,13,14,14],"right_children":[2,4,6,8,10,12,14,-1,-1,16,18,20,22,24,26,-1,-1,-1,-1,-1,-1,-1,-1,-1,-1,-1,-1],"split_conditions":[1.9135E2,7.3E1,1.05E1,2.2405E2,1.55E2,3.8925E2,2.0215E2,-7.988368E-1,1.058123E-3,1.9775E2,1.639E2,2.0475E2,4.575E2,1.3255E2,7.3E1,-1.6997775E-2,7.2622118E-3,-4.3847365E-3,7.2066486E-2,-3.8841966E-1,4.555723E-3,-0E0,1.49357E-1,-8.122203E-3,1.1213266E0,-9.869137E-2,2.5532812E-2],"split_indices":[1,0,0,2,1,1,2,0,0,2,2,2,1,2,0,0,0,0,0,0,0,0,0,0,0,0,0],"split_type":[0,0,0,0,0,0,0,0,0,0,0,0,0,0,0,0,0,0,0,0,0,0,0,0,0,0,0],"sum_hessian":[1.207E3,3.01E2,9.06E2,2.65E2,3.6E1,2.57E2,6.49E2,2.6E2,5E0,1.2E1,2.4E1,1.96E2,6.1E1,5.76E2,7.3E1,7E0,5E0,6E0,1.8E1,1.86E2,1E1,3.6E1,2.5E1,7E0,5.69E2,5.1E1,2.2E1],"tree_param":{"num_deleted":"0","num_feature":"6","num_nodes":"27","size_leaf_vector":"0"}},{"base_weights":[7.773703E-2,-4.873994E-1,8.649423E-1,1.5917926E-1,-5.952644E-1,8.891739E-1,-7.352115E-3,-5.0603095E-2,2.0842572E-1,-6.058906E-1,2.8707194E-3,-2.6241662E-3,8.952162E-1,-1.9326918E-2,1.1356579E-2,2.3684007E-1,-2.5912255E-2,3.6128645E-3,-6.145228E-1,2.6301315E-2,-2.326582E-2],"categories":[],"categories_nodes":[],"categories_segments":[],"categories_sizes":[],"default_left":[1,1,1,1,1,1,1,0,1,1,1,0,0,0,0,0,0,0,0,0,0],"id":17,"left_children":[1,3,5,7,9,11,13,-1,15,17,19,-1,-1,-1,-1,-1,-1,-1,-1,-1,-1],"loss_changes":[1.4067219E3,2.2943661E2,3.4160522E1,2.1618122E1,1.3888306E1,9.585022E0,4.5333067E-1,0E0,1.3293934E1,1.2190796E1,1.2423688E0,0E0,0E0,0E0,0E0,0E0,0E0,0E0,0E0,0E0,0E0],"parents":[2147483647,0,0,1,1,2,2,3,3,4,4,5,5,6,6,8,8,9,9,10,10],"right_children":[2,4,6,8,10,12,14,-1,16,18,20,-1,-1,-1,-1,-1,-1,-1,-1,-1,-1],"split_conditions":[3.608E2,1.5520001E2,2.055E2,1.3405E2,2.2055E2,1.322E2,2.213E2,-5.0603095E-2,3.35E2,1.193E2,3.1825E2,-2.6241662E-3,8.952162E-1,-1.9326918E-2,1.1356579E-2,2.3684007E-1,-2.5912255E-2,3.6128645E-3,-6.145228E-1,2.6301315E-2,-2.326582E-2],"split_indices":[1,2,2,2,2,2,2,0,1,1,1,0,0,0,0,0,0,0,0,0,0],"split_type":[0,0,0,0,0,0,0,0,0,0,0,0,0,0,0,0,0,0,0,0,0],"sum_hessian":[1.214E3,9.28E2,2.86E2,6.4E1,8.64E2,2.6E2,2.6E1,5E0,5.9E1,8.37E2,2.7E1,5E0,2.55E2,1.2E1,1.4E1,4.5E1,1.4E1,1.9E1,8.18E2,2.1E1,6E0],"tree_param":{"num_deleted":"0","num_feature":"6","num_nodes":"21","size_leaf_vector":"0"}},{"base_weights":[8.679903E-2,-3.1412408E-1,7.0946765E-1,-6.360911E-1,4.0315947E-1,7.235048E-1,-6.6005616E-3,5.5119503E-2,-6.8497336E-1,-1.312567E-1,5.50943E-1,3.2024365E-3,-1.0308836E-2,-6.1820365E-2,1.1704054E-1,-6.907305E-1,-5.1360936E-3,1.9210435E-2,-1.5050341E-1],"categories":[],"categories_nodes":[],"categories_segments":[],"categories_sizes":[],"default_left":[1,1,1,1,1,0,1,1,1,1,0,1,1,0,0,0,0,0,0],"id":18,"left_children":[1,3,5,7,9,-1,-1,13,15,17,-1,-1,-1,-1,-1,-1,-1,-1,-1],"loss_changes":[7.8050964E2,7.3022394E2,1.7014893E1,9.902368E1,1.7101025E2,0E0,7.339137E-2,1.4822741E1,2.99292E0,6.0758743E0,0E0,0E0,0E0,0E0,0E0,0E0,0E0,0E0,0E0],"parents":[2147483647,0,0,1,1,2,2,3,3,4,4,6,6,7,7,8,8,9,9],"right_children":[2,4,6,8,10,-1,-1,14,16,18,-1,-1,-1,-1,-1,-1,-1,-1,-1],"split_conditions":[3.8925E2,1.6395E2,2.055E2,1.501E2,1.556E2,7.235048E-1,-6.6005616E-3,1.3405E2,1.5575E2,1.68E2,5.50943E-1,3.2024365E-3,-1.0308836E-2,-6.1820365E-2,1.1704054E-1,-6.907305E-1,-5.1360936E-3,1.9210435E-2,-1.5050341E-1],"split_indices":[1,5,2,2,1,0,5,2,5,5,0,2147483647,2147483647,0,0,0,0,0,0],"split_type":[0,0,0,0,0,0,0,0,0,0,0,0,0,0,0,0,0,0,0],"sum_hessian":[1.233E3,1.051E3,1.82E2,8.04E2,2.47E2,1.69E2,1.3E1,4.4E1,7.6E2,7.7E1,1.7E2,4E0,9E0,1.3E1,3.1E1,7.37E2,2.3E1,6E0,7.1E1],"tree_param":{"num_deleted":"2","num_feature":"6","num_nodes":"19","size_leaf_vector":"0"}},{"base_weights":[2.3866177E-1,-4.359129E-1,5.0448453E-1,3.9549065E-3,-4.5185196E-1,-4.292952E-2,5.2858347E-1,1.1235777E-2,-6.8259602E-3,-4.6267006E-1,7.546577E-3,-4.648597E-2,2.8488995E-3,5.60828E-1,-0E0,-5.035533E-4,1.2306515E-2,1.7258428E-2,-9.193451E-3,3.7687286E-4,5.638709E-1,-6.804637E-2,6.274689E-2],"categories":[],"categories_nodes":[],"categories_segments":[],"categories_sizes":[],"default_left":[1,1,1,1,1,1,1,1,1,0,1,0,0,1,1,1,1,0,0,0,0,0,0],"id":19,"left_children":[1,3,5,-1,9,11,13,-1,-1,-1,17,-1,-1,19,21,-1,-1,-1,-1,-1,-1,-1,-1],"loss_changes":[6.1964386E2,1.0185898E1,5.0150024E1,1.5982728E-1,9.359879E0,3.1885207E-1,3.4967407E1,2.493219E-2,0E0,0E0,3.2673687E-1,0E0,0E0,2.8035889E0,9.043158E0,0E0,0E0,0E0,0E0,0E0,0E0,0E0,0E0],"parents":[2147483647,0,0,1,1,2,2,3,3,4,4,5,5,6,6,7,7,10,10,13,13,14,14],"right_children":[2,4,6,-1,10,12,14,-1,-1,-1,18,-1,-1,20,22,-1,-1,-1,-1,-1,-1,-1,-1],"split_conditions":[1.599E2,1.3405E2,1.3255E2,3.9549065E-3,1.8615E2,3.44E2,2.0165E2,1.1235777E-2,-6.8259602E-3,-4.6267006E-1,1.57E2,-4.648597E-2,2.8488995E-3,1.648E2,2.031E2,-5.035533E-4,1.2306515E-2,1.7258428E-2,-9.193451E-3,3.7687286E-4,5.638709E-1,-6.804637E-2,6.274689E-2],"split_indices":[1,1,2,2,3,1,2,2147483647,2147483647,0,1,0,0,1,2,2147483647,2147483647,0,0,0,0,0,0],"split_type":[0,0,0,0,0,0,0,0,0,0,0,0,0,0,0,0,0,0,0,0,0,0,0],"sum_hessian":[1.229E3,1.66E2,1.063E3,3.1E1,1.35E2,1.1E1,1.052E3,2.1E1,1E1,1.26E2,9E0,6E0,5E0,9.34E2,1.18E2,7E0,1.4E1,5E0,4E0,1.2E1,9.22E2,1.6E1,1.02E2],"tree_param":{"num_deleted":"4","num_feature":"6","num_nodes":"23","size_leaf_vector":"0"}},{"base_weights":[3.5859566E-2,-3.6595532E-1,6.202608E-1,-6.1908543E-1,4.291271E-1,-7.273596E-1,5.4279927E-2,-1.9441246E-3,-7.302058E-1,-1.9179623E-1,2.4179216E-1],"categories":[],"categories_nodes":[],"categories_segments":[],"categories_sizes":[],"default_left":[1,1,0,1,0,1,1,0,0,0,0],"id":20,"left_children":[1,3,-1,5,-1,7,9,-1,-1,-1,-1],"loss_changes":[7.5240967E2,6.59022E2,0E0,1.7775964E2,0E0,1.7242432E0,1.01401436E2,0E0,0E0,0E0,0E0],"parents":[2147483647,0,0,1,1,3,3,5,5,6,6],"right_children":[2,4,-1,6,-1,8,10,-1,-1,-1,-1],"split_conditions":[4.2E1,4.5055E2,6.202608E-1,1.6395E2,4.291271E-1,1.2165E2,1.75E1,-1.9441246E-3,-7.302058E-1,-1.9179623E-1,2.4179216E-1],"split_indices":[0,1,0,5,0,1,0,0,0,0,0],"split_type":[0,0,0,0,0,0,0,0,0,0,0],"sum_hessian":[1.237E3,9.54E2,2.83E2,8.92E2,6.2E1,7E2,1.92E2,1E1,6.9E2,7.2E1,1.2E2],"tree_param":{"num_deleted":"0","num_feature":"6","num_nodes":"11","size_leaf_vector":"0"}},{"base_weights":[1.3972272E-1,3.2967058E-1,-6.816265E-2,4.6375453E-1,-7.123808E-2,-2.0228775E-1,1.7052895E-1,-1.3730959E-2,4.8015127E-1,-1.8554941E-1,1.2390513E-1,-2.9161322E-1,1.3769029E-1,-8.260116E-2,2.4738142E-1,4.8999187E-1,-7.139969E-3,-2.3529969E-1,5.4027732E-2,-3.0720913E-1,1.2694637E-2,2.521259E-1,-2.8511062E-3],"categories":[],"categories_nodes":[],"categories_segments":[],"categories_sizes":[],"default_left":[1,1,1,1,1,1,1,0,1,1,0,1,0,0,1,0,0,0,0,0,0,0,0],"id":21,"left_children":[1,3,5,7,9,11,13,-1,15,17,-1,19,-1,-1,21,-1,-1,-1,-1,-1,-1,-1,-1],"loss_changes":[1.1089575E2,1.05319244E2,9.517934E1,1.5743622E1,4.9834454E1,9.100573E1,4.4308228E1,0E0,9.1586E0,2.6629417E1,0E0,1.1859009E1,0E0,0E0,2.2562637E0,0E0,0E0,0E0,0E0,0E0,0E0,0E0,0E0],"parents":[2147483647,0,0,1,1,2,2,3,3,4,4,5,5,6,6,8,8,9,9,11,11,14,14],"right_children":[2,4,6,8,10,12,14,-1,16,18,-1,20,-1,-1,22,-1,-1,-1,-1,-1,-1,-1,-1],"split_conditions":[1.653E2,6.9E1,1.1675E2,1.3255E2,1.654E2,2.778E2,1.7215E2,-1.3730959E-2,2.067E2,5.4199997E1,1.2390513E-1,2.2055E2,1.3769029E-1,-8.260116E-2,2.1785E2,4.8999187E-1,-7.139969E-3,-2.3529969E-1,5.4027732E-2,-3.0720913E-1,1.2694637E-2,2.521259E-1,-2.8511062E-3],"split_indices":[2,3,3,2,3,5,2,0,5,5,0,2,0,0,2,0,0,0,0,0,0,0,0],"split_type":[0,0,0,0,0,0,0,0,0,0,0,0,0,0,0,0,0,0,0,0,0,0,0],"sum_hessian":[1.236E3,3.41E2,8.95E2,1.39E2,2.02E2,6.72E2,2.23E2,9E0,1.3E2,1.6E2,4.2E1,6.46E2,2.6E1,3.3E1,1.9E2,1.23E2,7E0,1.49E2,1.1E1,6.07E2,3.9E1,1.81E2,9E0],"tree_param":{"num_deleted":"0","num_feature":"6","num_nodes":"23","size_leaf_vector":"0"}},{"base_weights":[2.4117433E-1,-3.167447E-1,4.9772948E-1,-4.052104E-1,8.791437E-2,-1.2192773E-1,6.689633E-1,-4.4749203E-1,3.78345E-2,-8.782498E-3,9.823451E-2,-2.1079017E-1,1.0396083E-1,6.715394E-1,-1.0473358E-3,5.9175566E-3,-4.5806807E-1,3.9808873E-2,-1.3688949E-3,5.3312187E-3,-1.472514E-2,5.4947704E-2,-2.7468964E-1,1.1695567E-1,-1.2148203E-2],"categories":[],"categories_nodes":[],"categories_segments":[],"categories_sizes":[],"default_left":[1,1,1,1,1,1,1,1,1,1,0,1,1,0,0,0,0,1,1,1,1,0,0,0,0],"id":22,"left_children":[1,3,5,7,9,11,13,15,-1,-1,-1,21,23,-1,-1,-1,-1,-1,-1,-1,-1,-1,-1,-1,-1],"loss_changes":[4.737902E2,8.253525E1,2.8365283E2,4.0570007E1,1.9602814E0,4.7199112E1,3.8778687E0,8.791763E0,1.5343845E-1,1.6833079E-1,0E0,3.6157387E1,3.0167265E0,0E0,0E0,0E0,0E0,0E0,0E0,0E0,0E0,0E0,0E0,0E0,0E0],"parents":[2147483647,0,0,1,1,2,2,3,3,4,4,5,5,6,6,7,7,8,8,9,9,11,11,12,12],"right_children":[2,4,6,8,10,12,14,16,-1,-1,-1,22,24,-1,-1,-1,-1,-1,-1,-1,-1,-1,-1,-1,-1],"split_conditions":[1.9135E2,1.665E2,1.05E1,7.3E1,1.55E2,4.72E2,1.1E2,1.193E2,3.78345E-2,-8.782498E-3,9.823451E-2,2.545E2,6.15E1,6.715394E-1,-1.0473358E-3,5.9175566E-3,-4.5806807E-1,3.9808873E-2,-1.3688949E-3,5.3312187E-3,-1.472514E-2,5.4947704E-2,-2.7468964E-1,1.1695567E-1,-1.2148203E-2],"split_indices":[1,3,0,0,1,1,0,1,1,1,0,1,3,0,0,0,0,2147483647,2147483647,2147483647,2147483647,0,0,0,0],"split_type":[0,0,0,0,0,0,0,0,0,0,0,0,0,0,0,0,0,0,0,0,0,0,0,0,0],"sum_hessian":[1.208E3,3.06E2,9.02E2,2.51E2,5.5E1,2.57E2,6.45E2,2.21E2,3E1,1.5E1,4E1,2.34E2,2.3E1,6.41E2,4E0,1.4E1,2.07E2,2.6E1,4E0,1E1,5E0,7.1E1,1.63E2,1.8E1,5E0],"tree_param":{"num_deleted":"4","num_feature":"6","num_nodes":"25","size_leaf_vector":"0"}},{"base_weights":[4.368943E-2,-2.0299497E-1,4.3556407E-1,-4.140659E-1,2.4674593E-1,4.804552E-1,-3.193117E-2,-5.6535846E-1,9.1064036E-2,-8.639879E-2,3.6152795E-1,-8.75606E-2,5.423511E-2,1.2119076E-2,-5.753377E-1,-1.13101214E-1,1.8801661E-1,-1.3283458E-1,4.659584E-2,3.671162E-1,-3.6793854E-3],"categories":[],"categories_nodes":[],"categories_segments":[],"categories_sizes":[],"default_left":[1,1,1,1,1,0,1,1,1,1,1,0,0,0,0,0,0,0,0,0,0],"id":23,"left_children":[1,3,5,7,9,-1,11,13,15,17,19,-1,-1,-1,-1,-1,-1,-1,-1,-1,-1],"loss_changes":[3.0381625E2,2.9666367E2,4.03087E1,1.8683582E2,8.0319084E1,0E0,9.750638E0,1.5898376E1,4.6401596E1,1.3235914E1,3.871338E0,0E0,0E0,0E0,0E0,0E0,0E0,0E0,0E0,0E0,0E0],"parents":[2147483647,0,0,1,1,2,2,3,3,4,4,6,6,7,7,8,8,9,9,10,10],"right_children":[2,4,6,8,10,-1,12,14,16,18,20,-1,-1,-1,-1,-1,-1,-1,-1,-1,-1],"split_conditions":[3.8925E2,1.521E2,6.95E1,1.1675E2,1.8595E2,4.804552E-1,1.01E2,1.439E2,1.592E2,1.2885E2,3.7E2,-8.75606E-2,5.423511E-2,1.2119076E-2,-5.753377E-1,-1.13101214E-1,1.8801661E-1,-1.3283458E-1,4.659584E-2,3.671162E-1,-3.6793854E-3],"split_indices":[1,5,3,3,1,0,3,1,1,3,1,0,0,0,0,0,0,0,0,0,0],"split_type":[0,0,0,0,0,0,0,0,0,0,0,0,0,0,0,0,0,0,0,0,0],"sum_hessian":[1.227E3,1.048E3,1.79E2,7.68E2,2.8E2,1.39E2,4E1,5E2,2.68E2,1.34E2,1.46E2,1.8E1,2.2E1,4E0,4.96E2,3.1E1,2.37E2,1.03E2,3.1E1,1.4E2,6E0],"tree_param":{"num_deleted":"0","num_feature":"6","num_nodes":"21","size_leaf_vector":"0"}},{"base_weights":[1.3496259E-1,-2.5589728E-1,2.907725E-1,-2.997551E-1,3.7485827E-2,-1.390066E-1,4.6936294E-1,1.68946E-2,-3.208841E-1,5.69664E-2,-1.9131536E-2,2.1048644E-1,-3.7685555E-1,-9.458356E-2,6.9358325E-1,-1.3056757E-2,3.0454783E-2,-0E0,-3.2191458E-1,-1.6268417E-3,5.9563447E-2,1.8814709E-3,2.161908E-1,-2.7409247E-1,2.2402598E-1],"categories":[],"categories_nodes":[],"categories_segments":[],"categories_sizes":[],"default_left":[1,1,1,1,1,1,1,1,1,1,0,1,0,1,0,0,0,0,0,0,0,0,0,0,0],"id":24,"left_children":[1,3,5,7,9,11,13,15,17,19,-1,21,-1,23,-1,-1,-1,-1,-1,-1,-1,-1,-1,-1,-1],"loss_changes":[2.1011017E2,2.6370789E1,2.236774E2,1.3113388E1,2.2547255E0,1.937883E2,2.7909283E2,8.2020235E-1,3.1941223E-1,2.8275537E-1,0E0,9.097786E-1,0E0,1.3915448E2,0E0,0E0,0E0,0E0,0E0,0E0,0E0,0E0,0E0,0E0,0E0],"parents":[2147483647,0,0,1,1,2,2,3,3,4,4,5,5,6,6,7,7,8,8,9,9,11,11,13,13],"right_children":[2,4,6,8,10,12,14,16,18,20,-1,22,-1,24,-1,-1,-1,-1,-1,-1,-1,-1,-1,-1,-1],"split_conditions":[1.599E2,2.05E2,2.1E1,1.193E2,2.364E2,1.43E1,2.1E1,5E0,5E0,1.75E1,-1.9131536E-2,2.2065E2,-3.7685555E-1,3.985E2,6.9358325E-1,-1.3056757E-2,3.0454783E-2,-0E0,-3.2191458E-1,-1.6268417E-3,5.9563447E-2,1.8814709E-3,2.161908E-1,-2.7409247E-1,2.2402598E-1],"split_indices":[1,5,0,1,5,5,5,0,0,0,0,1,0,1,0,0,0,0,0,0,0,0,0,0,0],"split_type":[0,0,0,0,0,0,0,0,0,0,0,0,0,0,0,0,0,0,0,0,0,0,0,0,0],"sum_hessian":[1.228E3,1.66E2,1.062E3,1.27E2,3.9E1,3.76E2,6.86E2,1.9E1,1.08E2,3.1E1,8E0,1.98E2,1.78E2,3.59E2,3.27E2,6E0,1.3E1,4E0,1.04E2,9E0,2.2E1,4.3E1,1.55E2,3.2E2,3.9E1],"tree_param":{"num_deleted":"0","num_feature":"6","num_nodes":"25","size_leaf_vector":"0"}},{"base_weights":[1.2003957E-1,-2.8087765E-1,2.887121E-1,2.3652188E-2,-3.0673605E-1,-1.0652044E-1,4.1231215E-1,-6.6504786E-3,3.082348E-2,2.036061E-3,-3.1168658E-1,-2.1240836E-1,1.0042299E-1,5.2562404E-1,-6.7627065E-2,-3.0257974E-3,5.5780616E-3,-3.1559953E-1,-3.1778463E-3,-2.5349668E-1,4.4673774E-2,1.4753067E-1,-4.1667067E-2,-3.839232E-2,5.541565E-1,7.212306E-2,-1.3247576E-1],"categories":[],"categories_nodes":[],"categories_segments":[],"categories_sizes":[],"default_left":[1,1,1,1,1,1,1,0,0,1,1,1,1,1,1,1,1,0,0,0,0,0,0,0,0,0,0],"id":25,"left_children":[1,3,5,7,9,11,13,-1,-1,-1,17,19,21,23,25,-1,-1,-1,-1,-1,-1,-1,-1,-1,-1,-1,-1],"loss_changes":[2.3135661E2,1.6562622E1,1.446074E2,4.3829823E-1,2.541191E0,4.9522728E1,1.3225055E2,0E0,0E0,3.6262613E-2,2.0903778E-1,2.3808975E1,1.3643312E1,4.647702E1,2.0677374E1,0E0,0E0,0E0,0E0,0E0,0E0,0E0,0E0,0E0,0E0,0E0,0E0],"parents":[2147483647,0,0,1,1,2,2,3,3,4,4,5,5,6,6,9,9,10,10,11,11,12,12,13,13,14,14],"right_children":[2,4,6,8,10,12,14,-1,-1,-1,18,20,22,24,26,-1,-1,-1,-1,-1,-1,-1,-1,-1,-1,-1,-1],"split_conditions":[1.5955E2,1.193E2,1.05E1,5E0,5E0,1.8585E2,1.919E2,-6.6504786E-3,3.082348E-2,2.036061E-3,2.0015E2,4.575E2,5E0,1.3255E2,2.2085E2,-3.0257974E-3,5.5780616E-3,-3.1559953E-1,-3.1778463E-3,-2.5349668E-1,4.4673774E-2,1.4753067E-1,-4.1667067E-2,-3.839232E-2,5.541565E-1,7.212306E-2,-1.3247576E-1],"split_indices":[1,1,0,0,0,2,2,0,0,1,2,1,0,2,1,2147483647,2147483647,0,0,0,0,0,0,0,0,0,0],"split_type":[0,0,0,0,0,0,0,0,0,0,0,0,0,0,0,0,0,0,0,0,0,0,0,0,0,0,0],"sum_hessian":[1.222E3,1.64E2,1.058E3,1.8E1,1.46E2,2.84E2,7.74E2,4E0,1.4E1,1E1,1.36E2,1.72E2,1.12E2,5.5E2,2.24E2,6E0,4E0,1.1E2,2.6E1,1.62E2,1E1,5.8E1,5.4E1,9E0,5.41E2,3.3E1,1.91E2],"tree_param":{"num_deleted":"2","num_feature":"6","num_nodes":"27","size_leaf_vector":"0"}},{"base_weights":[2.252995E-2,1.868579E-1,-2.9618853E-1,-6.318113E-2,3.28365E-1,-3.2083854E-1,1.7124142E-2,-1.6529092E-1,8.3522834E-2,3.3168977E-1,-7.933061E-4,-3.2560113E-1,3.4654757E-3,6.1378296E-2,-4.4490818E-2,1.6380115E-1,-7.856753E-2,-6.280828E-3,6.902227E-2],"categories":[],"categories_nodes":[],"categories_segments":[],"categories_sizes":[],"default_left":[1,1,1,1,1,1,1,0,1,0,0,0,0,1,0,0,0,0,0],"id":26,"left_children":[1,3,5,7,9,11,13,-1,15,-1,-1,-1,-1,17,-1,-1,-1,-1,-1],"loss_changes":[1.7140443E2,9.436809E1,1.445034E1,3.7634552E1,2.0581207E0,3.0023193E0,5.5504603E0,0E0,3.0010286E1,0E0,0E0,0E0,0E0,9.9500155E-1,0E0,0E0,0E0,0E0,0E0],"parents":[2147483647,0,0,1,1,2,2,3,3,4,4,5,5,6,6,8,8,13,13],"right_children":[2,4,6,8,10,12,14,-1,16,-1,-1,-1,-1,18,-1,-1,-1,-1,-1],"split_conditions":[1.205E1,5.005E1,1.95E1,8.43E1,1.175E1,1.9265E2,5.55E1,-1.6529092E-1,9.85E0,3.3168977E-1,-7.933061E-4,-3.2560113E-1,3.4654757E-3,1.055E2,-4.4490818E-2,1.6380115E-1,-7.856753E-2,-6.280828E-3,6.902227E-2],"split_indices":[4,5,4,3,4,3,3,0,4,0,0,0,0,5,0,0,0,0,0],"split_type":[0,0,0,0,0,0,0,0,0,0,0,0,0,0,0,0,0,0,0],"sum_hessian":[1.217E3,1.077E3,1.4E2,5.88E2,4.89E2,1.09E2,3.1E1,2.74E2,3.14E2,4.78E2,1.1E1,1.05E2,4E0,2.5E1,6E0,2.05E2,1.09E2,1.4E1,1.1E1],"tree_param":{"num_deleted":"0","num_feature":"6","num_nodes":"19","size_leaf_vector":"0"}},{"base_weights":[-5.3922832E-2,-2.4817076E-1,2.8479683E-1,-3.9066845E-1,2.407483E-1,-7.103544E-2,3.7894523E-1,-7.73479E-3,-4.208119E-1,2.4239327E-1,-0E0,-1.09695055E-1,3.96467E-2,3.8839832E-1,-2.3358127E-3,1.6058287E-1,-1.7274553E-1,2.0182006E-2,-4.3775702E-1,3.2355927E-3,-2.7933985E-3,1.2152764E-2,-1.2651919E-1,3.966004E-2,-4.1989718E-2],"categories":[],"categories_nodes":[],"categories_segments":[],"categories_sizes":[],"default_left":[1,1,1,1,1,1,1,1,1,0,1,1,0,0,1,0,0,0,0,1,1,0,0,0,0],"id":27,"left_children":[1,3,5,7,9,11,13,15,17,-1,-1,21,-1,-1,23,-1,-1,-1,-1,-1,-1,-1,-1,-1,-1],"loss_changes":[2.1712093E2,2.2998389E2,6.981982E1,1.8370087E1,3.1205368E-1,9.125124E0,5.310074E0,5.99086E1,2.200122E1,0E0,1.8353026E-2,3.8292246E0,0E0,0E0,3.3667495E0,0E0,0E0,0E0,0E0,0E0,0E0,0E0,0E0,0E0,0E0],"parents":[2147483647,0,0,1,1,2,2,3,3,4,4,5,5,6,6,7,7,8,8,10,10,11,11,14,14],"right_children":[2,4,6,8,10,12,14,16,18,-1,-1,22,-1,-1,24,-1,-1,-1,-1,-1,-1,-1,-1,-1,-1],"split_conditions":[4.2E1,4.5055E2,5.75E0,5E0,1.975E1,3.78E2,4.245E2,8.15E0,1.3405E2,2.4239327E-1,-0E0,2.1725E2,3.96467E-2,3.8839832E-1,1.135E1,1.6058287E-1,-1.7274553E-1,2.0182006E-2,-4.3775702E-1,3.2355927E-3,-2.7933985E-3,1.2152764E-2,-1.2651919E-1,3.966004E-2,-4.1989718E-2],"split_indices":[0,1,4,0,4,1,1,4,1,0,1,1,0,0,4,0,0,0,0,2147483647,2147483647,0,0,0,0],"split_type":[0,0,0,0,0,0,0,0,0,0,0,0,0,0,0,0,0,0,0,0,0,0,0,0,0],"sum_hessian":[1.226E3,9.5E2,2.76E2,8.92E2,5.8E1,1.08E2,1.68E2,1.58E2,7.34E2,4.9E1,9E0,9E1,1.8E1,1.47E2,2.1E1,9E1,6.8E1,1.9E1,7.15E2,4E0,5E0,4.1E1,4.9E1,4E0,1.7E1],"tree_param":{"num_deleted":"2","num_feature":"6","num_nodes":"25","size_leaf_vector":"0"}},{"base_weights":[7.7173226E-2,1.9978394E-1,-2.165438E-1,-2.2890698E-2,2.6034266E-1,5.2943174E-2,-2.7450922E-1,-1.7033428E-1,1.4713137E-1,4.1396463E-1,-1.3160782E-2,-4.867736E-2,1.0181714E-1,-2.8517255E-1,8.813794E-3,1.2605485E-2,-1.8976876E-1,1.8183088E-1,-3.0069709E-2,-3.176175E-2,4.4451413E-1,-9.820946E-2,1.1103669E-1,-1.4789057E-3,1.0415545E-1],"categories":[],"categories_nodes":[],"categories_segments":[],"categories_sizes":[],"default_left":[1,1,1,1,1,1,1,1,1,1,1,0,1,0,0,0,0,0,0,0,0,0,0,0,0],"id":28,"left_children":[1,3,5,7,9,11,13,15,17,19,21,-1,23,-1,-1,-1,-1,-1,-1,-1,-1,-1,-1,-1,-1],"loss_changes":[1.2302206E2,3.418067E1,3.2311443E1,5.9241703E1,7.795827E1,1.0133122E1,5.9567947E0,6.7293396E0,1.2725271E1,2.9766281E1,2.7661654E1,0E0,4.53434E-1,0E0,0E0,0E0,0E0,0E0,0E0,0E0,0E0,0E0,0E0,0E0,0E0],"parents":[2147483647,0,0,1,1,2,2,3,3,4,4,5,5,6,6,7,7,8,8,9,9,10,10,12,12],"right_children":[2,4,6,8,10,12,14,16,18,20,22,-1,24,-1,-1,-1,-1,-1,-1,-1,-1,-1,-1,-1,-1],"split_conditions":[1.205E1,2.1E1,1.4885E2,1.8585E2,1.653E2,1.365E1,1.8E2,5E0,2.015E2,1.3405E2,7.3E1,-4.867736E-2,5E0,-2.8517255E-1,8.813794E-3,1.2605485E-2,-1.8976876E-1,1.8183088E-1,-3.0069709E-2,-3.176175E-2,4.4451413E-1,-9.820946E-2,1.1103669E-1,-1.4789057E-3,1.0415545E-1],"split_indices":[4,0,2,2,2,4,2,4,2,2,0,0,0,0,0,0,0,0,0,0,0,0,0,0,0],"split_type":[0,0,0,0,0,0,0,0,0,0,0,0,0,0,0,0,0,0,0,0,0,0,0,0,0],"sum_hessian":[1.215E3,1.084E3,1.31E2,3.63E2,7.21E2,3.7E1,9.4E1,1.95E2,1.68E2,1.34E2,5.87E2,1E1,2.7E1,8.6E1,8E0,5E1,1.45E2,1.21E2,4.7E1,5E0,1.29E2,4.75E2,1.12E2,4E0,2.3E1],"tree_param":{"num_deleted":"0","num_feature":"6","num_nodes":"25","size_leaf_vector":"0"}},{"base_weights":[1.13066174E-1,2.3798876E-1,-2.1482396E-1,-2.6608922E-2,3.0940908E-1,-2.4611747E-1,3.0047178E-2,1.9023065E-1,-2.2325812E-1,-3.9383803E-2,4.172003E-1,-2.5224683E-1,5.0599664E-3,-2.460408E-3,3.3342104E-2,2.262922E-1,-1.4138579E-2,-1.0955597E-1,8.38633E-2,1.0132246E-2,-1.3091829E-2],"categories":[],"categories_nodes":[],"categories_segments":[],"categories_sizes":[],"default_left":[1,1,1,1,1,1,1,1,0,1,0,0,0,1,0,0,0,0,0,0,0],"id":29,"left_children":[1,3,5,7,9,11,13,15,-1,17,-1,-1,-1,19,-1,-1,-1,-1,-1,-1,-1],"loss_changes":[1.4178369E2,4.764376E1,1.6200542E1,1.005219E2,8.117357E1,3.1196365E0,2.0651412E-1,1.2046192E1,0E0,2.0599318E1,0E0,0E0,0E0,2.6947987E-1,0E0,0E0,0E0,0E0,0E0,0E0,0E0],"parents":[2147483647,0,0,1,1,2,2,3,3,4,4,5,5,6,6,7,7,9,9,13,13],"right_children":[2,4,6,8,10,12,14,16,-1,18,-1,-1,-1,20,-1,-1,-1,-1,-1,-1,-1],"split_conditions":[1.205E1,2.1E1,7.35E1,1.43E1,1.43E1,3.02E1,1.755E1,5E0,-2.2325812E-1,9.5E1,4.172003E-1,-2.5224683E-1,5.0599664E-3,1.51E1,3.3342104E-2,2.262922E-1,-1.4138579E-2,-1.0955597E-1,8.38633E-2,1.0132246E-2,-1.3091829E-2],"split_indices":[4,0,0,5,5,4,4,0,0,0,0,0,0,4,0,0,0,0,0,0,0],"split_type":[0,0,0,0,0,0,0,0,0,0,0,0,0,0,0,0,0,0,0,0,0],"sum_hessian":[1.213E3,1.078E3,1.35E2,3.61E2,7.17E2,1.17E2,1.8E1,1.86E2,1.75E2,3.18E2,3.99E2,1.12E2,5E0,1.1E1,7E0,6.9E1,1.17E2,2.76E2,4.2E1,5E0,6E0],"tree_param":{"num_deleted":"0","num_feature":"6","num_nodes":"21","size_leaf_vector":"0"}},{"base_weights":[9.5688015E-2,-2.3449528E-1,2.7130076E-1,-2.5447735E-1,1.568067E-2,3.797607E-1,-1.4866759E-1,-0E0,-2.737272E-1,3.0399414E-2,-1.4095908E-2,2.4995157E-2,4.4309267E-1,-1.8423356E-1,3.467126E-2,-7.407267E-2,7.722568E-2,-1.1247913E-4,-2.769482E-1,-4.976614E-3,3.6242113E-2,-1.9042574E-2,4.2875647E-3,-1.8596736E-1,2.6543313E-1,-3.7731916E-2,5.230544E-1,-1.9019596E-1,5.0348006E-3,3.9090987E-2,-3.5813965E-3],"categories":[],"categories_nodes":[],"categories_segments":[],"categories_sizes":[],"default_left":[1,1,1,1,1,1,1,1,1,1,1,1,1,1,1,0,0,0,0,0,0,1,1,0,0,0,0,0,0,0,0],"id":30,"left_children":[1,3,5,7,9,11,13,15,17,19,-1,23,25,27,29,-1,-1,-1,-1,-1,-1,-1,-1,-1,-1,-1,-1,-1,-1,-1,-1],"loss_changes":[1.9300035E2,1.0658508E1,1.4407474E2,6.350151E0,8.91149E-1,2.9335358E1,1.3713324E1,1.1945326E1,8.7467957E-1,4.072345E-1,1.8132475E-1,1.1711737E2,7.665021E1,2.2824974E0,3.302027E-1,0E0,0E0,0E0,0E0,0E0,0E0,0E0,0E0,0E0,0E0,0E0,0E0,0E0,0E0,0E0,0E0],"parents":[2147483647,0,0,1,1,2,2,3,3,4,4,5,5,6,6,7,7,8,8,9,9,10,10,11,11,12,12,13,13,14,14],"right_children":[2,4,6,8,10,12,14,16,18,20,-1,24,26,28,30,-1,-1,-1,-1,-1,-1,-1,-1,-1,-1,-1,-1,-1,-1,-1,-1],"split_conditions":[1.9135E2,7.3E1,1.205E1,5.6E0,1.677E2,1.8E0,7.35E1,2.6E0,1.425E2,1.55E2,-1.4095908E-2,4.5125E2,2.1E1,3.02E1,4.0745E2,-7.407267E-2,7.722568E-2,-1.1247913E-4,-2.769482E-1,-4.976614E-3,3.6242113E-2,-1.9042574E-2,4.2875647E-3,-1.8596736E-1,2.6543313E-1,-3.7731916E-2,5.230544E-1,-1.9019596E-1,5.0348006E-3,3.9090987E-2,-3.5813965E-3],"split_indices":[1,0,4,4,1,4,0,4,1,1,1,1,0,4,1,0,0,0,0,0,0,2147483647,2147483647,0,0,0,0,0,0,0,0],"split_type":[0,0,0,0,0,0,0,0,0,0,0,0,0,0,0,0,0,0,0,0,0,0,0,0,0,0,0,0,0,0,0],"sum_hessian":[1.231E3,3.1E2,9.21E2,2.73E2,3.7E1,8.09E2,1.12E2,8.8E1,1.85E2,2.2E1,1.5E1,3.35E2,4.74E2,9.2E1,2E1,6.3E1,2.5E1,1.6E1,1.69E2,1.2E1,1E1,5E0,1E1,2.98E2,3.7E1,1.42E2,3.32E2,8.7E1,5E0,1E1,1E1],"tree_param":{"num_deleted":"2","num_feature":"6","num_nodes":"31","size_leaf_vector":"0"}},{"base_weights":[3.6337256E-2,-1.7247826E-1,2.7704945E-1,-2.5235033E-1,1.0352764E-1,3.5372892E-1,-7.583061E-2,3.0409575E-2,-3.0225277E-1,-1.8015992E-2,1.2183007E-1,-8.297295E-3,4.0277475E-1,-1.0180667E-1,2.4246944E-2,-8.3844155E-2,1.16228245E-1,-3.301021E-1,3.577808E-2,-2.7134297E-2,8.558381E-3,1.3402669E-1,-1.2306561E-2,1.9378684E-1,-1.9331041E-1],"categories":[],"categories_nodes":[],"categories_segments":[],"categories_sizes":[],"default_left":[1,1,1,1,1,1,1,1,1,1,1,1,0,0,0,0,0,0,0,0,0,0,0,0,0],"id":31,"left_children":[1,3,5,7,9,11,13,15,17,19,21,23,-1,-1,-1,-1,-1,-1,-1,-1,-1,-1,-1,-1,-1],"loss_changes":[1.5877092E2,6.5814804E1,6.511511E1,3.3117462E1,4.7182617E0,2.7261032E1,5.299273E0,2.113517E1,2.6323242E1,4.8697698E-1,3.5066128E0,8.000857E1,0E0,0E0,0E0,0E0,0E0,0E0,0E0,0E0,0E0,0E0,0E0,0E0,0E0],"parents":[2147483647,0,0,1,1,2,2,3,3,4,4,5,5,6,6,7,7,8,8,9,9,10,10,11,11],"right_children":[2,4,6,8,10,12,14,16,18,20,22,24,-1,-1,-1,-1,-1,-1,-1,-1,-1,-1,-1,-1,-1],"split_conditions":[3.145E2,1.98E2,1.955E2,1.6520001E2,1.3765E2,1.6345E2,4.6255E2,1.5875E2,2.2055E2,2.05E2,2.22E2,1.494E2,4.0277475E-1,-1.0180667E-1,2.4246944E-2,-8.3844155E-2,1.16228245E-1,-3.301021E-1,3.577808E-2,-2.7134297E-2,8.558381E-3,1.3402669E-1,-1.2306561E-2,1.9378684E-1,-1.9331041E-1],"split_indices":[1,5,2,2,1,2,1,2,2,5,2,2,0,0,0,0,0,0,0,0,0,0,0,0,0],"split_type":[0,0,0,0,0,0,0,0,0,0,0,0,0,0,0,0,0,0,0,0,0,0,0,0,0],"sum_hessian":[1.207E3,7.97E2,4.1E2,6.86E2,1.11E2,3.36E2,7.4E1,1.6E2,5.26E2,1.3E1,9.8E1,1.38E2,1.98E2,4.9E1,2.5E1,7.6E1,8.4E1,5.09E2,1.7E1,8E0,5E0,9.4E1,4E0,4.2E1,9.6E1],"tree_param":{"num_deleted":"0","num_feature":"6","num_nodes":"25","size_leaf_vector":"0"}},{"base_weights":[7.140466E-2,-7.638115E-2,2.4858423E-1,9.652878E-2,-2.1197952E-1,-1.086171E-1,3.6444715E-1,1.7982143E-1,-9.14951E-2,-2.6329473E-1,6.3324876E-2,2.3032263E-2,-1.3194926E-1,3.8576418E-1,-2.124878E-2,1.89183E-1,-6.304884E-3,-1.8418065E-1,9.120678E-2,-3.019135E-1,-0E0,-6.5594004E-4,6.541338E-2],"categories":[],"categories_nodes":[],"categories_segments":[],"categories_sizes":[],"default_left":[1,1,1,1,1,1,1,1,1,1,1,0,0,0,0,0,0,0,0,0,0,0,0],"id":32,"left_children":[1,3,5,7,9,11,13,15,17,19,21,-1,-1,-1,-1,-1,-1,-1,-1,-1,-1,-1,-1],"loss_changes":[7.730786E1,6.684974E1,9.136332E1,4.083415E1,3.6862114E1,6.395587E0,1.8023544E1,3.7515068E0,3.6115704E1,1.4293884E1,2.1265173E-1,0E0,0E0,0E0,0E0,0E0,0E0,0E0,0E0,0E0,0E0,0E0,0E0],"parents":[2147483647,0,0,1,1,2,2,3,3,4,4,5,5,6,6,7,7,8,8,9,9,10,10],"right_children":[2,4,6,8,10,12,14,16,18,20,22,-1,-1,-1,-1,-1,-1,-1,-1,-1,-1,-1,-1],"split_conditions":[1.635E2,1.61E1,1.75E1,4.2E1,9.05E1,1.7945E2,2.245E2,2.025E2,9.55E1,1.7975E2,1.5929999E2,2.3032263E-2,-1.3194926E-1,3.8576418E-1,-2.124878E-2,1.89183E-1,-6.304884E-3,-1.8418065E-1,9.120678E-2,-3.019135E-1,-0E0,-6.5594004E-4,6.541338E-2],"split_indices":[5,5,0,0,0,5,2,2,0,2,2,0,0,0,0,0,0,0,0,0,0,0,0],"split_type":[0,0,0,0,0,0,0,0,0,0,0,0,0,0,0,0,0,0,0,0,0,0,0],"sum_hessian":[1.224E3,9.76E2,2.48E2,5.54E2,4.22E2,7.5E1,1.73E2,4.16E2,1.38E2,3.94E2,2.8E1,1E1,6.5E1,1.65E2,8E0,3.83E2,3.3E1,8.8E1,5E1,2.17E2,1.77E2,1.5E1,1.3E1],"tree_param":{"num_deleted":"0","num_feature":"6","num_nodes":"23","size_leaf_vector":"0"}},{"base_weights":[1.8407213E-2,-1.854003E-1,3.5335553E-1,-3.060144E-1,7.152347E-2,4.157145E-1,-4.3602142E-2,-3.9368358E-1,8.725568E-2,2.2396985E-1,-1.3487293E-1,-2.0168537E-2,4.4073048E-1,-1.0304989E-1,5.9879128E-2,1.407664E-2,-4.093391E-1,2.085078E-1,-1.1969892E-1,-1.6825596E-2,2.4053232E-1,-2.0382415E-1,6.1584957E-2,6.6118844E-2,-5.35174E-3],"categories":[],"categories_nodes":[],"categories_segments":[],"categories_sizes":[],"default_left":[1,1,1,1,1,1,1,1,1,1,1,0,0,0,1,0,0,0,0,0,0,0,0,0,0],"id":33,"left_children":[1,3,5,7,9,11,13,15,17,19,21,-1,-1,-1,23,-1,-1,-1,-1,-1,-1,-1,-1,-1,-1],"loss_changes":[2.1734927E2,8.512828E1,4.767018E1,8.8875626E1,7.619001E1,2.1322601E1,1.2743714E1,1.5356567E1,5.2731087E1,9.012554E0,2.9461311E1,0E0,0E0,0E0,7.9858327E-1,0E0,0E0,0E0,0E0,0E0,0E0,0E0,0E0,0E0,0E0],"parents":[2147483647,0,0,1,1,2,2,3,3,4,4,5,5,6,6,7,7,8,8,9,9,10,10,14,14],"right_children":[2,4,6,8,10,12,14,16,18,20,22,-1,-1,-1,24,-1,-1,-1,-1,-1,-1,-1,-1,-1,-1],"split_conditions":[3.8925E2,9.405E1,1.15E1,1.0200001E1,8.15E0,3.985E2,2.14E1,1.193E2,1.175E1,2.65E0,2.5205E2,-2.0168537E-2,4.4073048E-1,-1.0304989E-1,5.0015E2,1.407664E-2,-4.093391E-1,2.085078E-1,-1.1969892E-1,-1.6825596E-2,2.4053232E-1,-2.0382415E-1,6.1584957E-2,6.6118844E-2,-5.35174E-3],"split_indices":[1,3,4,4,4,1,4,1,4,4,1,0,0,0,1,0,0,0,0,0,0,0,0,0,0],"split_type":[0,0,0,0,0,0,0,0,0,0,0,0,0,0,0,0,0,0,0,0,0,0,0,0,0],"sum_hessian":[1.223E3,1.037E3,1.86E2,5.77E2,4.6E2,1.21E2,6.5E1,4.72E2,1.05E2,2.17E2,2.43E2,1.6E1,1.05E2,4.7E1,1.8E1,2E1,4.52E2,6.3E1,4.2E1,1.1E1,2.06E2,1.54E2,8.9E1,1.1E1,7E0],"tree_param":{"num_deleted":"0","num_feature":"6","num_nodes":"25","size_leaf_vector":"0"}},{"base_weights":[8.377903E-2,1.8268612E-1,-1.7198446E-1,2.2804998E-1,1.2241746E-2,-2.005028E-1,2.5539136E-2,2.9533288E-1,-6.302881E-2,-1.8893033E-1,2.4984294E-1,-2.1117562E-1,9.768195E-3,6.0691163E-2,-3.5061765E-2,-8.729633E-2,2.394707E-2,-2.6030576E-1,6.691237E-2,-7.6414472E-3,2.6071587E-1],"categories":[],"categories_nodes":[],"categories_segments":[],"categories_sizes":[],"default_left":[1,1,1,1,1,1,1,0,1,1,1,0,0,0,0,0,0,0,0,0,0],"id":34,"left_children":[1,3,5,7,9,11,13,-1,15,17,19,-1,-1,-1,-1,-1,-1,-1,-1,-1,-1],"loss_changes":[8.778585E1,1.3271225E1,1.1601654E1,4.9948524E1,1.1888365E2,4.6478157E0,4.3306456E0,0E0,4.4903584E0,4.271439E1,5.251549E0,0E0,0E0,0E0,0E0,0E0,0E0,0E0,0E0,0E0,0E0],"parents":[2147483647,0,0,1,1,2,2,3,3,4,4,5,5,6,6,8,8,9,9,10,10],"right_children":[2,4,6,8,10,12,14,-1,16,18,20,-1,-1,-1,-1,-1,-1,-1,-1,-1,-1],"split_conditions":[1.205E1,6.6499996E0,1.95E1,4.2E1,4.2E1,1.785E2,5.55E1,2.9533288E-1,9.5E1,1.283E2,7.7E0,-2.1117562E-1,9.768195E-3,6.0691163E-2,-3.5061765E-2,-8.729633E-2,2.394707E-2,-2.6030576E-1,6.691237E-2,-7.6414472E-3,2.6071587E-1],"split_indices":[4,4,4,0,0,3,3,0,0,3,4,0,0,0,0,0,0,0,0,0,0],"split_type":[0,0,0,0,0,0,0,0,0,0,0,0,0,0,0,0,0,0,0,0,0],"sum_hessian":[1.228E3,1.093E3,1.35E2,5.94E2,4.99E2,1.07E2,2.8E1,4.72E2,1.22E2,3.8E2,1.19E2,1E2,7E0,2.2E1,6E0,9.7E1,2.5E1,2.85E2,9.5E1,1.5E1,1.04E2],"tree_param":{"num_deleted":"0","num_feature":"6","num_nodes":"21","size_leaf_vector":"0"}},{"base_weights":[2.4061466E-2,-1.4346303E-1,2.9373696E-1,-2.644933E-1,1.0589063E-1,3.3198842E-1,-2.8873546E-2,-3.3006543E-1,8.183829E-2,-1.150226E-1,2.1694565E-1,-7.3610716E-2,4.3283258E-2,-1.5129524E-1,3.6526937E-2,2.3469812E-1,-1.9450892E-2],"categories":[],"categories_nodes":[],"categories_segments":[],"categories_sizes":[],"default_left":[1,1,1,1,1,0,1,0,0,1,1,0,0,0,0,0,0],"id":35,"left_children":[1,3,5,7,9,-1,11,-1,-1,13,15,-1,-1,-1,-1,-1,-1],"loss_changes":[1.4287045E2,8.980341E1,2.4335838E1,6.492505E1,5.8885403E1,0E0,6.571403E0,0E0,0E0,1.1707509E1,9.989834E0,0E0,0E0,0E0,0E0,0E0,0E0],"parents":[2147483647,0,0,1,1,2,2,3,3,4,4,6,6,9,9,10,10],"right_children":[2,4,6,8,10,-1,12,-1,-1,14,16,-1,-1,-1,-1,-1,-1],"split_conditions":[3.8925E2,1.2605E2,6.95E1,1.665E2,1.551E2,3.3198842E-1,1.01E2,-3.3006543E-1,8.183829E-2,1.2885E2,3.7E2,-7.3610716E-2,4.3283258E-2,-1.5129524E-1,3.6526937E-2,2.3469812E-1,-1.9450892E-2],"split_indices":[1,5,3,3,1,0,3,0,0,3,1,0,0,0,0,0,0],"split_type":[0,0,0,0,0,0,0,0,0,0,0,0,0,0,0,0,0],"sum_hessian":[1.228E3,1.045E3,1.83E2,6.64E2,3.81E2,1.39E2,4.4E1,5.99E2,6.5E1,1.14E2,2.67E2,1.9E1,2.5E1,9.6E1,1.8E1,2.57E2,1E1],"tree_param":{"num_deleted":"0","num_feature":"6","num_nodes":"17","size_leaf_vector":"0"}},{"base_weights":[1.1941126E-1,-3.0845141E-2,2.2716291E-1,9.072357E-2,-1.5474825E-1,2.7695897E-1,-6.336245E-2,1.4873902E-1,-6.435676E-2,-2.0193525E-1,4.1873265E-2,-9.148918E-3,2.8571534E-1,-7.485374E-2,1.0804312E-2,2.2159411E-1,-2.4158856E-2,3.29613E-2,-9.572371E-2,3.6815986E-2,-2.3907135E-1,-3.237204E-2,7.29304E-2,-9.0699835E-4,2.8775713E-1],"categories":[],"categories_nodes":[],"categories_segments":[],"categories_sizes":[],"default_left":[1,1,1,1,1,1,1,1,1,1,1,0,1,0,0,0,0,0,0,0,0,0,0,0,0],"id":36,"left_children":[1,3,5,7,9,11,13,15,17,19,21,-1,23,-1,-1,-1,-1,-1,-1,-1,-1,-1,-1,-1,-1],"loss_changes":[4.3371475E1,4.1395138E1,3.8285576E1,2.3506008E1,2.0318748E1,6.2721634E0,1.710937E0,2.3439966E1,6.5932283E0,1.952459E1,4.853052E0,0E0,1.2213821E0,0E0,0E0,0E0,0E0,0E0,0E0,0E0,0E0,0E0,0E0,0E0,0E0],"parents":[2147483647,0,0,1,1,2,2,3,3,4,4,5,5,6,6,7,7,8,8,9,9,10,10,12,12],"right_children":[2,4,6,8,10,12,14,16,18,20,22,-1,24,-1,-1,-1,-1,-1,-1,-1,-1,-1,-1,-1,-1],"split_conditions":[1.164E2,5.5E0,2.085E2,1.215E2,1.2815E2,1.4125E2,1.2015E2,1.765E2,1.564E2,1.494E2,1.379E2,-9.148918E-3,1.184E2,-7.485374E-2,1.0804312E-2,2.2159411E-1,-2.4158856E-2,3.29613E-2,-9.572371E-2,3.6815986E-2,-2.3907135E-1,-3.237204E-2,7.29304E-2,-9.0699835E-4,2.8775713E-1],"split_indices":[5,5,2,3,3,2,3,2,2,2,2,0,5,0,0,0,0,0,0,0,0,0,0,0,0],"split_type":[0,0,0,0,0,0,0,0,0,0,0,0,0,0,0,0,0,0,0,0,0,0,0,0,0],"sum_hessian":[1.24E3,8.14E2,4.26E2,5.44E2,2.7E2,4.05E2,2.1E1,4.28E2,1.16E2,1.98E2,7.2E1,9E0,3.96E2,1.6E1,5E0,1.05E2,3.23E2,1.2E1,1.04E2,2.6E1,1.72E2,4E0,6.8E1,5E0,3.91E2],"tree_param":{"num_deleted":"0","num_feature":"6","num_nodes":"25","size_leaf_vector":"0"}},{"base_weights":[1.0353153E-1,-1.712522E-1,2.3782866E-1,-2.4163872E-1,7.436081E-2,3.0102533E-1,-7.85193E-2,5.889637E-3,-2.506352E-1,7.6586634E-2,-1.3008118E-3,7.7315294E-3,3.6046904E-1,-1.0982681E-1,2.7622463E-2,-4.631094E-3,1.1126082E-2,-2.5133663E-1,-0E0,-1.5638395E-1,2.0650469E-1,-1.2675085E-3,3.9599252E-1,1.452906E-2,-1.2638238E-1,5.3445913E-2,-2.326443E-2],"categories":[],"categories_nodes":[],"categories_segments":[],"categories_sizes":[],"default_left":[1,1,1,1,1,1,1,1,1,0,0,1,1,1,1,1,1,1,1,0,0,0,0,0,0,0,0],"id":37,"left_children":[1,3,5,7,9,11,13,-1,-1,-1,-1,19,21,23,25,-1,-1,-1,-1,-1,-1,-1,-1,-1,-1,-1,-1],"loss_changes":[1.2235376E2,4.0630013E1,6.1832573E1,4.386589E0,3.1477118E-1,2.8341248E1,6.760034E0,1.109114E-1,1.8144989E-1,0E0,0E0,7.557552E1,1.9589005E1,4.0765123E0,2.6356304E0,0E0,0E0,0E0,0E0,0E0,0E0,0E0,0E0,0E0,0E0,0E0,0E0],"parents":[2147483647,0,0,1,1,2,2,3,3,4,4,5,5,6,6,7,7,8,8,11,11,12,12,13,13,14,14],"right_children":[2,4,6,8,10,12,14,-1,-1,-1,-1,20,22,24,26,-1,-1,-1,-1,-1,-1,-1,-1,-1,-1,-1,-1],"split_conditions":[1.905E2,1.665E2,1.205E1,1.193E2,1.7745E2,2.2E0,3.8925E2,5.889637E-3,-2.506352E-1,7.6586634E-2,-1.3008118E-3,4.775E2,2.3755E2,2.7515E2,3.9345E2,-4.631094E-3,1.1126082E-2,-2.5133663E-1,-0E0,-1.5638395E-1,2.0650469E-1,-1.2675085E-3,3.9599252E-1,1.452906E-2,-1.2638238E-1,5.3445913E-2,-2.326443E-2],"split_indices":[1,3,4,1,1,4,1,1,4,0,0,1,1,1,1,2147483647,2147483647,2147483647,2147483647,0,0,0,0,0,0,0,0],"split_type":[0,0,0,0,0,0,0,0,0,0,0,0,0,0,0,0,0,0,0,0,0,0,0,0,0,0,0],"sum_hessian":[1.211E3,3.06E2,9.05E2,2.52E2,5.4E1,7.96E2,1.09E2,1.9E1,2.33E2,4.7E1,7E0,3.26E2,4.7E2,6.1E1,4.8E1,1.3E1,6E0,2.29E2,4E0,2.94E2,3.2E1,1.27E2,3.43E2,1.8E1,4.3E1,5E0,4.3E1],"tree_param":{"num_deleted":"4","num_feature":"6","num_nodes":"27","size_leaf_vector":"0"}},{"base_weights":[2.8681891E-2,1.6658024E-1,-1.4001173E-1,1.9916403E-1,-2.1556295E-2,-3.1032044E-1,1.9896904E-1,2.170906E-1,-1.0968523E-2,-7.916864E-2,5.0807E-2,-3.3030102E-1,1.8533807E-2,2.0011087E-1,-0E0,-6.0180962E-2,4.736687E-2,-8.607001E-2,6.2735393E-3,-3.3277434E-1,1.6176596E-3,-1.2549885E-2,3.1454846E-2],"categories":[],"categories_nodes":[],"categories_segments":[],"categories_sizes":[],"default_left":[1,1,1,1,1,1,1,0,1,1,0,1,1,0,0,0,0,0,0,0,0,0,0],"id":38,"left_children":[1,3,5,7,9,11,13,-1,15,17,-1,19,21,-1,-1,-1,-1,-1,-1,-1,-1,-1,-1],"loss_changes":[7.553768E1,1.4760471E1,1.513412E2,8.296646E0,8.830874E0,1.5634293E1,3.133316E-1,0E0,5.931647E0,1.1901679E0,0E0,1.8507538E0,8.166849E-1,0E0,0E0,0E0,0E0,0E0,0E0,0E0,0E0,0E0,0E0],"parents":[2147483647,0,0,1,1,2,2,3,3,4,4,5,5,6,6,8,8,9,9,11,11,12,12],"right_children":[2,4,6,8,10,12,14,-1,16,18,-1,20,22,-1,-1,-1,-1,-1,-1,-1,-1,-1,-1],"split_conditions":[7.95E0,4.2E1,4.2E1,6.6499996E0,7.3E1,1.701E2,2.58E1,2.170906E-1,9.305E1,7.7E0,5.0807E-2,3.02E1,2.1E1,2.0011087E-1,-0E0,-6.0180962E-2,4.736687E-2,-8.607001E-2,6.2735393E-3,-3.3277434E-1,1.6176596E-3,-1.2549885E-2,3.1454846E-2],"split_indices":[4,0,0,4,0,3,4,0,3,4,0,4,0,0,0,0,0,0,0,0,0,0,0],"split_type":[0,0,0,0,0,0,0,0,0,0,0,0,0,0,0,0,0,0,0,0,0,0,0],"sum_hessian":[1.244E3,6.93E2,5.51E2,5.43E2,1.5E2,4.24E2,1.27E2,4.72E2,7.1E1,3.5E1,1.15E2,3.97E2,2.7E1,1.22E2,5E0,2.6E1,4.5E1,3.1E1,4E0,3.93E2,4E0,5E0,2.2E1],"tree_param":{"num_deleted":"0","num_feature":"6","num_nodes":"23","size_leaf_vector":"0"}},{"base_weights":[3.9638467E-2,-1.6487561E-1,1.3264284E-1,-1.8358506E-1,1.28677515E-2,1.598184E-2,2.278261E-1,6.189266E-3,-1.9234161E-1,4.637035E-2,-3.3655968E-2,-1.4097951E-1,1.8376654E-1,2.3589759E-1,-2.4721157E-3,-3.4882613E-3,1.021308E-2,-1.9722117E-1,3.210396E-3,-5.446777E-3,5.2639294E-2,1.253685E-1,-2.2804739E-1,-4.1902777E-2,2.1470551E-1,-1.1303016E-4,2.3966773E-1,-8.411349E-3,5.4569603E-3],"categories":[],"categories_nodes":[],"categories_segments":[],"categories_sizes":[],"default_left":[1,1,1,1,1,1,1,1,1,1,0,1,1,1,1,1,1,0,0,0,0,0,0,0,0,0,0,1,1],"id":39,"left_children":[1,3,5,7,9,11,13,-1,17,19,-1,21,23,25,-1,-1,-1,-1,-1,-1,-1,-1,-1,-1,-1,-1,-1,-1,-1],"loss_changes":[6.449786E1,6.2553596E0,1.9522469E1,3.118122E0,3.1895666E0,7.912686E1,2.7018623E0,7.851298E-2,1.7692986E0,6.455443E-1,0E0,6.593139E1,1.8941708E1,1.0838165E0,9.5600456E-2,0E0,0E0,0E0,0E0,0E0,0E0,0E0,0E0,0E0,0E0,0E0,0E0,0E0,0E0],"parents":[2147483647,0,0,1,1,2,2,3,3,4,4,5,5,6,6,7,7,8,8,9,9,11,11,12,12,13,13,14,14],"right_children":[2,4,6,8,10,12,14,-1,18,20,-1,22,24,26,-1,-1,-1,-1,-1,-1,-1,-1,-1,-1,-1,-1,-1,-1,-1],"split_conditions":[1.551E2,1.9365E2,4.5055E2,1.325E2,1.465E2,9.405E1,1.975E2,6.189266E-3,1.785E2,1.278E2,-3.3655968E-2,1.5245E2,1.313E2,1.44E2,-2.4721157E-3,-3.4882613E-3,1.021308E-2,-1.9722117E-1,3.210396E-3,-5.446777E-3,5.2639294E-2,1.253685E-1,-2.2804739E-1,-4.1902777E-2,2.1470551E-1,-1.1303016E-4,2.3966773E-1,-8.411349E-3,5.4569603E-3],"split_indices":[1,2,1,1,1,3,2,1,3,1,0,2,2,2,3,2147483647,2147483647,0,0,0,0,0,0,0,0,0,0,2147483647,2147483647],"split_type":[0,0,0,0,0,0,0,0,0,0,0,0,0,0,0,0,0,0,0,0,0,0,0,0,0,0,0,0,0],"sum_hessian":[1.242E3,1.45E2,1.097E3,1.04E2,4.1E1,1.02E3,7.7E1,1.5E1,8.9E1,3.2E1,9E0,6.08E2,4.12E2,5.3E1,2.4E1,7E0,8E0,8.1E1,8E0,9E0,2.3E1,4E1,5.68E2,5E0,4.07E2,1.4E1,3.9E1,1.5E1,9E0],"tree_param":{"num_deleted":"4","num_feature":"6","num_nodes":"29","size_leaf_vector":"0"}},{"base_weights":[6.912425E-2,-3.453838E-2,1.9298816E-1,1.0110754E-1,-1.5513869E-1,1.6635092E-1,-6.8333305E-2,-2.4061684E-1,8.5513584E-2,2.2930829E-1,-7.868627E-2,-8.962336E-2,1.9386424E-2,-2.444079E-1,3.4204966E-3,-7.611207E-2,1.6070347E-1],"categories":[],"categories_nodes":[],"categories_segments":[],"categories_sizes":[],"default_left":[1,1,0,1,1,1,1,1,1,0,0,0,0,0,0,0,0],"id":40,"left_children":[1,3,-1,5,7,9,11,13,15,-1,-1,-1,-1,-1,-1,-1,-1],"loss_changes":[3.5378056E1,4.9412125E1,0E0,2.8805662E1,5.124191E1,4.016376E1,3.909082E0,2.2156372E0,2.5957607E1,0E0,0E0,0E0,0E0,0E0,0E0,0E0,0E0],"parents":[2147483647,0,0,1,1,3,3,4,4,5,5,6,6,7,7,8,8],"right_children":[2,4,-1,6,8,10,12,14,16,-1,-1,-1,-1,-1,-1,-1,-1],"split_conditions":[7.3E1,7.95E0,1.9298816E-1,1.381E2,1.4695001E2,4.2E1,2.1135E2,3.02E1,1.75E1,2.2930829E-1,-7.868627E-2,-8.962336E-2,1.9386424E-2,-2.444079E-1,3.4204966E-3,-7.611207E-2,1.6070347E-1],"split_indices":[0,4,0,5,5,0,5,4,0,0,0,0,0,0,0,0,0],"split_type":[0,0,0,0,0,0,0,0,0,0,0,0,0,0,0,0,0],"sum_hessian":[1.23E3,1.06E3,1.7E2,5.73E2,4.87E2,4.29E2,1.44E2,3.61E2,1.26E2,3.94E2,3.5E1,1.03E2,4.1E1,3.56E2,5E0,3.4E1,9.2E1],"tree_param":{"num_deleted":"0","num_feature":"6","num_nodes":"17","size_leaf_vector":"0"}},{"base_weights":[8.898834E-2,-1.8735684E-2,1.7640232E-1,9.7643785E-2,-1.5447874E-1,2.520178E-1,-5.827088E-2,1.567293E-1,-6.764401E-3,-2.2014359E-1,6.1910424E-2,-4.3358218E-2,3.083817E-1,-8.812809E-2,3.1063573E-2,-5.598731E-2,5.4085243E-2,-2.3032513E-1,5.9554838E-3,7.880571E-2,-1.5276582E-2,-6.033582E-2,1.7287627E-2,3.1347376E-1,-3.0080972E-3,-1.0395843E-1,1.5345442E-2],"categories":[],"categories_nodes":[],"categories_segments":[],"categories_sizes":[],"default_left":[1,1,1,1,1,1,1,0,1,1,1,1,1,1,0,0,0,0,0,0,0,0,0,0,0,0,0],"id":41,"left_children":[1,3,5,7,9,11,13,-1,15,17,19,21,23,25,-1,-1,-1,-1,-1,-1,-1,-1,-1,-1,-1,-1,-1],"loss_changes":[2.4269836E1,4.5048954E1,3.8258713E1,1.1196817E1,3.166868E1,3.3315163E1,5.7881308E0,0E0,7.6566167E0,4.225609E0,2.634942E0,2.162163E0,2.8804169E0,3.4643497E0,0E0,0E0,0E0,0E0,0E0,0E0,0E0,0E0,0E0,0E0,0E0,0E0,0E0],"parents":[2147483647,0,0,1,1,2,2,3,3,4,4,5,5,6,6,8,8,9,9,10,10,11,11,12,12,13,13],"right_children":[2,4,6,8,10,12,14,-1,16,18,20,22,24,26,-1,-1,-1,-1,-1,-1,-1,-1,-1,-1,-1,-1,-1],"split_conditions":[1.025E1,7.05E0,1.205E1,5E0,1.283E2,2.1E1,7.35E1,1.567293E-1,2.35E0,7.35E1,8.95E0,1.195E1,1.7904999E2,1.3785E2,3.1063573E-2,-5.598731E-2,5.4085243E-2,-2.3032513E-1,5.9554838E-3,7.880571E-2,-1.5276582E-2,-6.033582E-2,1.7287627E-2,3.1347376E-1,-3.0080972E-3,-1.0395843E-1,1.5345442E-2],"split_indices":[4,4,4,0,3,0,0,0,4,0,4,4,3,3,0,0,0,0,0,0,0,0,0,0,0,0,0],"split_type":[0,0,0,0,0,0,0,0,0,0,0,0,0,0,0,0,0,0,0,0,0,0,0,0,0,0,0],"sum_hessian":[1.218E3,8.95E2,3.23E2,6.31E2,2.64E2,1.9E2,1.33E2,8.6E1,5.45E2,1.91E2,7.3E1,6.6E1,1.24E2,1.14E2,1.9E1,3.5E2,1.95E2,1.67E2,2.4E1,4.8E1,2.5E1,6.2E1,4E0,1.17E2,7E0,9.9E1,1.5E1],"tree_param":{"num_deleted":"0","num_feature":"6","num_nodes":"27","size_leaf_vector":"0"}},{"base_weights":[9.235467E-2,-1.3777412E-1,2.3928836E-1,-1.7411773E-1,3.8070798E-2,2.6565868E-1,9.638947E-3,-1.9105795E-1,-1.4490424E-2,-1.9936608E-2,5.87458E-2,1.2394561E-2,2.9831067E-1,-4.3342967E-2,5.8608994E-2,-1.9454254E-1,2.7196002E-3,-1.0563988E-1,9.466032E-2,-3.342693E-2,1.3021907E-2,6.992543E-2,-1.0948654E-2,1.6535248E-1,-1.5417002E-1,-7.980586E-2,4.0056434E-2,8.4350415E-2,-2.3102282E-2],"categories":[],"categories_nodes":[],"categories_segments":[],"categories_sizes":[],"default_left":[1,1,1,1,1,1,1,1,1,1,1,1,0,1,1,0,0,0,0,0,0,0,0,0,0,0,0,0,0],"id":42,"left_children":[1,3,5,7,9,11,13,15,17,19,21,23,-1,25,27,-1,-1,-1,-1,-1,-1,-1,-1,-1,-1,-1,-1,-1,-1],"loss_changes":[1.086597E2,1.6315039E1,7.7905426E0,9.9290466E-1,2.4810472E0,8.667366E0,5.7080545E0,1.4400024E0,2.216311E1,9.0033215E-1,1.6155317E0,5.6529423E1,0E0,6.7289486E0,4.215187E0,0E0,0E0,0E0,0E0,0E0,0E0,0E0,0E0,0E0,0E0,0E0,0E0,0E0,0E0],"parents":[2147483647,0,0,1,1,2,2,3,3,4,4,5,5,6,6,7,7,8,8,9,9,10,10,11,11,13,13,14,14],"right_children":[2,4,6,8,10,12,14,16,18,20,22,24,-1,26,28,-1,-1,-1,-1,-1,-1,-1,-1,-1,-1,-1,-1,-1,-1],"split_conditions":[2.3805E2,2.05E2,1.919E2,1.7325E2,1.8885E2,3.145E2,2.0325E2,2.2055E2,4.765E1,2.021E2,2.205E2,2.805E2,2.9831067E-1,1.2235E2,3.2525E2,-1.9454254E-1,2.7196002E-3,-1.0563988E-1,9.466032E-2,-3.342693E-2,1.3021907E-2,6.992543E-2,-1.0948654E-2,1.6535248E-1,-1.5417002E-1,-7.980586E-2,4.0056434E-2,8.4350415E-2,-2.3102282E-2],"split_indices":[1,5,2,1,2,1,2,2,5,1,1,1,0,5,1,0,0,0,0,0,0,0,0,0,0,0,0,0,0],"split_type":[0,0,0,0,0,0,0,0,0,0,0,0,0,0,0,0,0,0,0,0,0,0,0,0,0,0,0,0,0],"sum_hessian":[1.237E3,5.05E2,7.32E2,4.29E2,7.6E1,5.14E2,2.18E2,2.07E2,2.22E2,2.3E1,5.3E1,2.18E2,2.96E2,1.55E2,6.3E1,2.02E2,5E0,1.41E2,8.1E1,1.7E1,6E0,4.9E1,4E0,1.19E2,9.9E1,1.42E2,1.3E1,2.8E1,3.5E1],"tree_param":{"num_deleted":"0","num_feature":"6","num_nodes":"29","size_leaf_vector":"0"}},{"base_weights":[2.80167E-2,-8.841279E-2,2.3404548E-1,-2.2381525E-1,1.2527968E-1,2.4060002E-1,-3.6608882E-3,-2.990776E-1,7.420235E-2,-4.9925663E-2,2.1480705E-1,-1.9015202E-2,1.4801848E-2,-3.1091192E-1,8.762141E-3,1.1880864E-1,-4.892013E-2,-1.282352E-1,8.667058E-2,-1.0439512E-2,2.2828388E-1],"categories":[],"categories_nodes":[],"categories_segments":[],"categories_sizes":[],"default_left":[1,1,1,1,1,0,1,1,1,1,1,0,0,0,0,0,0,0,0,0,0],"id":43,"left_children":[1,3,5,7,9,-1,11,13,15,17,19,-1,-1,-1,-1,-1,-1,-1,-1,-1,-1],"loss_changes":[7.4330246E1,9.032686E1,2.6850967E0,5.9918976E1,3.3927505E1,0E0,5.7045126E-1,8.48201E0,1.2097015E1,2.5126402E1,6.031616E0,0E0,0E0,0E0,0E0,0E0,0E0,0E0,0E0,0E0,0E0],"parents":[2147483647,0,0,1,1,2,2,3,3,4,4,6,6,7,7,8,8,9,9,10,10],"right_children":[2,4,6,8,10,-1,12,14,16,18,20,-1,-1,-1,-1,-1,-1,-1,-1,-1,-1],"split_conditions":[4.5055E2,9.405E1,2.95E1,4.2E1,2.3595001E2,2.4060002E-1,1.75E1,8.93E1,5.175E1,1.665E2,1.05E1,-1.9015202E-2,1.4801848E-2,-3.1091192E-1,8.762141E-3,1.1880864E-1,-4.892013E-2,-1.282352E-1,8.667058E-2,-1.0439512E-2,2.2828388E-1],"split_indices":[1,3,3,0,1,0,0,3,3,3,0,0,0,0,0,0,0,0,0,0,0],"split_type":[0,0,0,0,0,0,0,0,0,0,0,0,0,0,0,0,0,0,0,0,0],"sum_hessian":[1.233E3,1.151E3,8.2E1,6.77E2,4.74E2,7E1,1.2E1,5.39E2,1.38E2,3.08E2,1.66E2,5E0,7E0,5.11E2,2.8E1,1.3E2,8E0,2.37E2,7.1E1,2E1,1.46E2],"tree_param":{"num_deleted":"0","num_feature":"6","num_nodes":"21","size_leaf_vector":"0"}},{"base_weights":[1.354167E-1,-1.2523705E-1,2.143493E-1,2.2607064E-2,-1.5962142E-1,8.801598E-3,2.2785352E-1,-3.2539506E-2,5.651333E-2,-1.645774E-1,3.4045398E-3,8.5884936E-2,-7.600402E-2,2.2857733E-1,-0E0,1.0982295E-2,-4.454849E-2,6.107166E-2,-3.4932345E-3,7.915862E-3,-3.99975E-3,-9.481232E-2,1.8996526E-2],"categories":[],"categories_nodes":[],"categories_segments":[],"categories_sizes":[],"default_left":[1,1,1,1,1,1,1,1,1,0,1,0,1,0,0,0,0,0,0,1,1,0,0],"id":44,"left_children":[1,3,5,7,9,11,13,15,17,-1,-1,-1,21,-1,-1,-1,-1,-1,-1,-1,-1,-1,-1],"loss_changes":[7.285152E1,9.518051E0,3.6636581E0,3.8890004E0,1.496521E0,1.4187485E1,4.2333984E-1,1.0516772E0,5.28239E-1,0E0,6.728988E-2,0E0,3.7776885E0,0E0,0E0,0E0,0E0,0E0,0E0,0E0,0E0,0E0,0E0],"parents":[2147483647,0,0,1,1,2,2,3,3,4,4,5,5,6,6,7,7,8,8,10,10,12,12],"right_children":[2,4,6,8,10,12,14,16,18,-1,-1,-1,22,-1,-1,-1,-1,-1,-1,-1,-1,-1,-1],"split_conditions":[1.551E2,1.465E2,1.9135E2,1.38E2,1.625E2,1.677E2,1.7445E2,1.193E2,1.335E2,-1.645774E-1,3.4045398E-3,8.5884936E-2,1.7295E2,2.2857733E-1,-0E0,1.0982295E-2,-4.454849E-2,6.107166E-2,-3.4932345E-3,7.915862E-3,-3.99975E-3,-9.481232E-2,1.8996526E-2],"split_indices":[1,1,1,1,3,1,3,1,3,0,1,0,3,0,0,0,0,0,0,2147483647,2147483647,0,0],"split_type":[0,0,0,0,0,0,0,0,0,0,0,0,0,0,0,0,0,0,0,0,0,0,0],"sum_hessian":[1.234E3,1.49E2,1.085E3,9E1,5.9E1,1.71E2,9.14E2,4.4E1,4.6E1,5.1E1,8E0,8.6E1,8.5E1,9.1E2,4E0,1.9E1,2.5E1,3.4E1,1.2E1,4E0,4E0,7.7E1,8E0],"tree_param":{"num_deleted":"2","num_feature":"6","num_nodes":"23","size_leaf_vector":"0"}},{"base_weights":[-1.2106869E-3,-1.4280185E-1,1.4925429E-1,9.595888E-2,-2.1847269E-1,-1.0185955E-1,2.5002503E-1,1.6062038E-1,-6.448277E-2,-2.591342E-1,4.720561E-2,3.7531883E-2,-1.4891131E-1,-0E0,2.9603508E-1,-2.7651107E-1,1.69863E-2,5.581923E-2,-8.305029E-3,-8.22157E-3,4.609721E-2,1.6078113E-1,-1.7968932E-1],"categories":[],"categories_nodes":[],"categories_segments":[],"categories_sizes":[],"default_left":[1,1,1,1,1,1,1,0,0,1,1,1,0,1,0,0,0,0,0,0,0,0,0],"id":45,"left_children":[1,3,5,7,9,11,13,-1,-1,15,17,19,-1,21,-1,-1,-1,-1,-1,-1,-1,-1,-1],"loss_changes":[6.862788E1,5.0963047E1,6.511842E1,2.1734156E1,2.9245064E1,1.3232924E1,1.6245003E1,0E0,0E0,1.2086205E1,9.903486E-1,8.2430923E-1,0E0,6.408326E1,0E0,0E0,0E0,0E0,0E0,0E0,0E0,0E0,0E0],"parents":[2147483647,0,0,1,1,2,2,3,3,4,4,5,5,6,6,9,9,10,10,11,11,13,13],"right_children":[2,4,6,8,10,12,14,-1,-1,16,18,20,-1,22,-1,-1,-1,-1,-1,-1,-1,-1,-1],"split_conditions":[5.4199997E1,5E0,2.1E1,1.63E1,9.55E1,1.7945E2,1.521E2,1.6062038E-1,-6.448277E-2,1.7385E2,6.8E0,9.425E1,-1.4891131E-1,1.381E2,2.9603508E-1,-2.7651107E-1,1.69863E-2,5.581923E-2,-8.305029E-3,-8.22157E-3,4.609721E-2,1.6078113E-1,-1.7968932E-1],"split_indices":[5,0,0,5,0,5,5,0,0,3,5,5,0,5,0,0,0,0,0,0,0,0,0],"split_type":[0,0,0,0,0,0,0,0,0,0,0,0,0,0,0,0,0,0,0,0,0,0,0],"sum_hessian":[1.221E3,6.57E2,5.64E2,9.2E1,5.65E2,1.57E2,4.07E2,6.7E1,2.5E1,5.13E2,5.2E1,8.8E1,6.9E1,2.18E2,1.89E2,4.83E2,3E1,4.8E1,4E0,1.1E1,7.7E1,1.7E2,4.8E1],"tree_param":{"num_deleted":"0","num_feature":"6","num_nodes":"23","size_leaf_vector":"0"}},{"base_weights":[1.725736E-2,-9.964687E-2,2.3423521E-1,-1.9162138E-1,1.01806626E-1,2.3950374E-1,-3.2427614E-3,-2.881416E-1,8.7772E-2,-1.53595265E-2,1.426696E-1,6.612884E-3,-2.9394197E-1,-7.730844E-2,1.6841437E-1,-1.3198705E-1,1.21302076E-1,1.4627546E-1,-2.8052197E-3],"categories":[],"categories_nodes":[],"categories_segments":[],"categories_sizes":[],"default_left":[1,1,1,1,1,0,0,1,1,1,1,0,0,0,0,0,0,0,0],"id":46,"left_children":[1,3,5,7,9,-1,-1,11,13,15,17,-1,-1,-1,-1,-1,-1,-1,-1],"loss_changes":[7.984662E1,5.9315582E1,2.2447853E0,7.4525024E1,8.593984E0,0E0,0E0,4.8041534E0,2.9479692E1,3.581127E1,1.0496464E0,0E0,0E0,0E0,0E0,0E0,0E0,0E0,0E0],"parents":[2147483647,0,0,1,1,2,2,3,3,4,4,7,7,8,8,9,9,10,10],"right_children":[2,4,6,8,10,-1,-1,12,14,16,18,-1,-1,-1,-1,-1,-1,-1,-1],"split_conditions":[4.5055E2,1.1675E2,9.15E1,1.5625E2,2.393E2,2.3950374E-1,-3.2427614E-3,1.4185E2,1.8695E2,4.765E1,1.5E2,6.612884E-3,-2.9394197E-1,-7.730844E-2,1.6841437E-1,-1.3198705E-1,1.21302076E-1,1.4627546E-1,-2.8052197E-3],"split_indices":[1,3,3,5,1,0,0,1,1,5,3,0,0,0,0,0,0,0,0],"split_type":[0,0,0,0,0,0,0,0,0,0,0,0,0,0,0,0,0,0,0],"sum_hessian":[1.225E3,1.146E3,7.9E1,8.22E2,3.24E2,7.1E1,8E0,5.89E2,2.33E2,2.42E2,8.2E1,7E0,5.82E2,8.8E1,1.45E2,1.51E2,9.1E1,7.8E1,4E0],"tree_param":{"num_deleted":"0","num_feature":"6","num_nodes":"19","size_leaf_vector":"0"}},{"base_weights":[1.0583918E-1,-1.1735312E-1,1.7850508E-1,1.5880922E-2,-1.4356486E-1,2.357784E-1,-8.094528E-2,-3.7912853E-2,5.487631E-2,2.4314292E-1,1.0753596E-2,-1.0134375E-1,1.7149106E-2,1.4163997E-2,-5.3082906E-2,6.053575E-2,-4.6209157E-3,-3.510451E-2,4.7204725E-2,1.5610947E-2,-1.19653285E-1,4.8016373E-2,-2.8776433E-2],"categories":[],"categories_nodes":[],"categories_segments":[],"categories_sizes":[],"default_left":[1,1,1,1,0,1,1,1,1,0,1,1,1,0,0,0,0,0,0,0,0,0,0],"id":47,"left_children":[1,3,5,7,-1,9,11,13,15,-1,17,19,21,-1,-1,-1,-1,-1,-1,-1,-1,-1,-1],"loss_changes":[5.665934E1,6.3319883E0,4.974359E1,4.3650136E0,0E0,4.7831726E-1,4.01114E0,1.5945145E0,6.5888786E-1,0E0,3.5186024E0,4.2154884E0,2.8699124E0,0E0,0E0,0E0,0E0,0E0,0E0,0E0,0E0,0E0,0E0],"parents":[2147483647,0,0,1,1,2,2,3,3,5,5,6,6,7,7,8,8,10,10,11,11,12,12],"right_children":[2,4,6,8,-1,10,12,14,16,-1,18,20,22,-1,-1,-1,-1,-1,-1,-1,-1,-1,-1],"split_conditions":[1.556E2,1.465E2,1.205E1,1.38E2,-1.4356486E-1,1.3945E2,3.8925E2,1.193E2,1.328E2,2.4314292E-1,1.655E2,2.7515E2,3.9345E2,1.4163997E-2,-5.3082906E-2,6.053575E-2,-4.6209157E-3,-3.510451E-2,4.7204725E-2,1.5610947E-2,-1.19653285E-1,4.8016373E-2,-2.8776433E-2],"split_indices":[1,1,4,1,0,3,1,1,3,0,3,1,1,0,0,0,0,0,0,0,0,0,0],"split_type":[0,0,0,0,0,0,0,0,0,0,0,0,0,0,0,0,0,0,0,0,0,0,0],"sum_hessian":[1.2E3,1.42E2,1.058E3,8.5E1,5.7E1,9.43E2,1.15E2,4.2E1,4.3E1,8.33E2,1.1E2,7.2E1,4.3E1,1.7E1,2.5E1,3.1E1,1.2E1,5.9E1,5.1E1,2.6E1,4.6E1,5E0,3.8E1],"tree_param":{"num_deleted":"0","num_feature":"6","num_nodes":"23","size_leaf_vector":"0"}},{"base_weights":[-3.423068E-3,-1.0571679E-1,2.0530315E-1,8.852046E-2,-1.5969017E-1,2.2754285E-1,-1.7569456E-2,-4.5973666E-2,1.3252099E-1,-2.4711275E-1,3.7502456E-2,2.4204974E-1,-1.173039E-2,-5.292085E-2,6.189782E-3,1.4619257E-1,-1.0147544E-2,7.9258025E-2,-5.2313544E-2],"categories":[],"categories_nodes":[],"categories_segments":[],"categories_sizes":[],"default_left":[1,1,1,1,1,1,0,1,1,0,1,0,0,0,0,0,0,0,0],"id":48,"left_children":[1,3,5,7,9,11,-1,13,15,-1,17,-1,-1,-1,-1,-1,-1,-1,-1],"loss_changes":[6.96094E1,3.6910446E1,9.441071E0,1.2722275E1,4.481571E1,6.6095734E0,0E0,7.1839666E-1,3.6951218E0,0E0,9.777717E0,0E0,0E0,0E0,0E0,0E0,0E0,0E0,0E0],"parents":[2147483647,0,0,1,1,2,2,3,3,4,4,5,5,7,7,8,8,10,10],"right_children":[2,4,6,8,10,12,-1,14,16,-1,18,-1,-1,-1,-1,-1,-1,-1,-1],"split_conditions":[4.5055E2,1.5470001E2,1.975E2,1.3405E2,1.8575E2,1.975E1,-1.7569456E-2,3.44E2,4.134E2,-2.4711275E-1,3.495E2,2.4204974E-1,-1.173039E-2,-5.292085E-2,6.189782E-3,1.4619257E-1,-1.0147544E-2,7.9258025E-2,-5.2313544E-2],"split_indices":[1,2,2,2,2,4,0,1,1,0,1,0,0,0,0,0,0,0,0],"split_type":[0,0,0,0,0,0,0,0,0,0,0,0,0,0,0,0,0,0,0],"sum_hessian":[1.246E3,1.169E3,7.7E1,1.13E2,1.056E3,5.3E1,2.4E1,1.4E1,9.9E1,5.58E2,4.98E2,4.1E1,1.2E1,8E0,6E0,7.1E1,2.8E1,4.24E2,7.4E1],"tree_param":{"num_deleted":"0","num_feature":"6","num_nodes":"19","size_leaf_vector":"0"}},{"base_weights":[1.845621E-2,1.4046043E-1,-5.1971667E-2,-4.7948588E-2,1.937014E-1,-1.1670693E-1,5.0360605E-2,-5.087278E-2,1.0834594E-3,-1.485973E-1,4.802177E-2,1.13759086E-1,-5.098061E-2,1.58502E-2,-1.4288406E-2,-1.2863807E-2,-1.8966419E-1,6.1628427E-3,1.2441674E-1,-7.6267034E-2,2.9805593E-2],"categories":[],"categories_nodes":[],"categories_segments":[],"categories_sizes":[],"default_left":[1,1,1,1,0,1,1,0,1,1,0,1,1,0,0,0,0,0,0,0,0],"id":49,"left_children":[1,3,5,7,-1,9,11,-1,13,15,-1,17,19,-1,-1,-1,-1,-1,-1,-1,-1],"loss_changes":[2.6462513E1,2.0264368E1,2.00738E1,2.2898388E-1,0E0,1.5664955E1,1.5622414E1,0E0,4.6060306E-1,6.3720016E0,0E0,6.013527E-1,4.898934E0,0E0,0E0,0E0,0E0,0E0,0E0,0E0,0E0],"parents":[2147483647,0,0,1,1,2,2,3,3,5,5,6,6,8,8,9,9,11,11,12,12],"right_children":[2,4,6,8,-1,10,12,-1,14,16,-1,18,20,-1,-1,-1,-1,-1,-1,-1,-1],"split_conditions":[1.494E2,1.4265E2,1.8575E2,9.95E0,1.937014E-1,2.778E2,1.9295E2,-5.087278E-2,2.58E1,1.3279999E2,4.802177E-2,1.164E2,1.045E1,1.58502E-2,-1.4288406E-2,-1.2863807E-2,-1.8966419E-1,6.1628427E-3,1.2441674E-1,-7.6267034E-2,2.9805593E-2],"split_indices":[2,2,2,4,0,5,2,0,4,5,0,5,4,0,0,0,0,0,0,0,0],"split_type":[0,0,0,0,0,0,0,0,0,0,0,0,0,0,0,0,0,0,0,0,0],"sum_hessian":[1.225E3,8.7E1,1.138E3,3.9E1,4.8E1,6.14E2,5.24E2,1.1E1,2.8E1,5.99E2,1.5E1,2.5E2,2.74E2,1.5E1,1.3E1,4.47E2,1.52E2,1.69E2,8.1E1,2.56E2,1.8E1],"tree_param":{"num_deleted":"0","num_feature":"6","num_nodes":"21","size_leaf_vector":"0"}},{"base_weights":[8.534989E-2,1.4730446E-1,-2.9043019E-2,-3.0552587E-2,1.7104813E-1,9.294284E-2,-1.1270401E-1,-3.412041E-2,2.3894804E-3,-6.733656E-3,1.9239783E-1,1.4983429E-1,-6.0060516E-2,-2.0734604E-1,8.474949E-2,-1.3993931E-2,1.6751913E-2,9.6332096E-2,-9.864738E-2,2.1236494E-1,1.6755508E-2,-1.0428697E-2,1.6294691E-1,-2.2135322E-1,1.2725519E-2,1.3826153E-1,-5.7534024E-2],"categories":[],"categories_nodes":[],"categories_segments":[],"categories_sizes":[],"default_left":[1,1,1,1,1,1,1,0,1,1,1,1,0,1,1,0,0,0,0,0,0,0,0,0,0,0,0],"id":50,"left_children":[1,3,5,7,9,11,13,-1,15,17,19,21,-1,23,25,-1,-1,-1,-1,-1,-1,-1,-1,-1,-1,-1,-1],"loss_changes":[2.0042454E1,1.2074097E1,2.6925905E1,2.1904057E-1,7.3474426E0,1.9498213E1,4.3983E1,0E0,4.7628647E-1,2.022768E1,1.3703232E0,4.221691E0,0E0,6.7589607E0,1.6865278E1,0E0,0E0,0E0,0E0,0E0,0E0,0E0,0E0,0E0,0E0,0E0,0E0],"parents":[2147483647,0,0,1,1,2,2,3,3,4,4,5,5,6,6,8,8,9,9,10,10,11,11,13,13,14,14],"right_children":[2,4,6,8,10,12,14,-1,16,18,20,22,-1,24,26,-1,-1,-1,-1,-1,-1,-1,-1,-1,-1,-1,-1],"split_conditions":[1.839E2,1.4265E2,2.1E1,4.835E1,1.05E1,1.7945E2,1.125E2,-3.412041E-2,2.1E1,1.43E1,1.653E2,1.8585E2,-6.0060516E-2,9.5E1,2.085E2,-1.3993931E-2,1.6751913E-2,9.6332096E-2,-9.864738E-2,2.1236494E-1,1.6755508E-2,-1.0428697E-2,1.6294691E-1,-2.2135322E-1,1.2725519E-2,1.3826153E-1,-5.7534024E-2],"split_indices":[2,2,0,5,0,5,5,0,0,5,2,2,0,0,2,0,0,0,0,0,0,0,0,0,0,0,0],"split_type":[0,0,0,0,0,0,0,0,0,0,0,0,0,0,0,0,0,0,0,0,0,0,0,0,0,0,0],"sum_hessian":[1.216E3,6.05E2,6.11E2,3.5E1,5.7E2,2.01E2,4.1E2,1.3E1,2.2E1,1.32E2,4.38E2,1.64E2,3.7E1,2.45E2,1.65E2,6E0,1.6E1,3.7E1,9.5E1,2.03E2,2.35E2,2.5E1,1.39E2,2.27E2,1.8E1,1.43E2,2.2E1],"tree_param":{"num_deleted":"0","num_feature":"6","num_nodes":"27","size_leaf_vector":"0"}},{"base_weights":[6.1307758E-2,-3.831155E-2,2.0171902E-1,-1.0566299E-1,1.2245409E-1,2.1217716E-1,-8.327416E-3,3.6962252E-2,-1.3748352E-1,-2.2756613E-3,1.2738417E-1,-0E0,2.1420339E-1,-0E0,-8.4455E-3,1.17259935E-1,-7.8871354E-2,5.544176E-2,-1.7557545E-1,1.33396685E-2,-1.6220715E-2,1.301738E-1,-1.6909348E-3,-1.5561118E-2,1.5347434E-2],"categories":[],"categories_nodes":[],"categories_segments":[],"categories_sizes":[],"default_left":[1,1,1,1,1,1,1,1,1,1,1,1,0,1,1,0,0,0,0,0,0,0,0,0,0],"id":51,"left_children":[1,3,5,7,9,11,-1,15,17,19,21,23,-1,-1,-1,-1,-1,-1,-1,-1,-1,-1,-1,-1,-1],"loss_changes":[3.8624714E1,3.5961197E1,4.232456E0,1.4381243E1,1.0220928E0,5.0715256E-1,1.6457736E-3,2.0029099E1,2.3617554E1,4.399312E-1,6.692753E-1,4.7984505E-1,0E0,0E0,0E0,0E0,0E0,0E0,0E0,0E0,0E0,0E0,0E0,0E0,0E0],"parents":[2147483647,0,0,1,1,2,2,3,3,4,4,5,5,6,6,7,7,8,8,9,9,10,10,11,11],"right_children":[2,4,6,8,10,12,-1,16,18,20,22,24,-1,-1,-1,-1,-1,-1,-1,-1,-1,-1,-1,-1,-1],"split_conditions":[4.5055E2,9.05E1,1.975E1,5E0,2.0335E2,5E0,-8.327416E-3,8.15E0,1.465E2,1.8615E2,4.134E2,4.955E2,2.1420339E-1,-0E0,-8.4455E-3,1.17259935E-1,-7.8871354E-2,5.544176E-2,-1.7557545E-1,1.33396685E-2,-1.6220715E-2,1.301738E-1,-1.6909348E-3,-1.5561118E-2,1.5347434E-2],"split_indices":[1,0,4,0,1,0,1,4,1,1,1,1,0,2147483647,2147483647,0,0,0,0,0,0,0,0,0,0],"split_type":[0,0,0,0,0,0,0,0,0,0,0,0,0,0,0,0,0,0,0,0,0,0,0,0,0],"sum_hessian":[1.203E3,1.127E3,7.6E1,1.038E3,8.9E1,6.5E1,1.1E1,1.57E2,8.81E2,2E1,6.9E1,9E0,5.6E1,5E0,6E0,8.8E1,6.9E1,6.8E1,8.13E2,1.3E1,7E0,6.3E1,6E0,5E0,4E0],"tree_param":{"num_deleted":"2","num_feature":"6","num_nodes":"25","size_leaf_vector":"0"}},{"base_weights":[8.108083E-2,-2.8718986E-2,1.4713737E-1,7.5482816E-2,-1.6155547E-1,1.7624013E-1,-3.724398E-2,1.4262287E-1,-4.0762894E-2,-1.632873E-1,3.4700852E-4,2.0494393E-1,-2.6386194E-2,2.3569172E-2,-6.171153E-2,2.0186505E-1,-5.944213E-2,-8.605175E-2,4.679655E-2,2.4448057E-1,-1.1149435E-2,5.272337E-2,-7.806066E-2,3.4995977E-2,-1.0914563E-2,-6.739531E-2,4.726164E-3],"categories":[],"categories_nodes":[],"categories_segments":[],"categories_sizes":[],"default_left":[1,1,1,1,1,1,1,1,1,0,0,1,1,1,1,0,0,0,0,0,0,0,0,0,0,0,0],"id":52,"left_children":[1,3,5,7,9,11,13,15,17,-1,-1,19,21,23,25,-1,-1,-1,-1,-1,-1,-1,-1,-1,-1,-1,-1],"loss_changes":[2.0488035E1,3.539503E1,1.500972E1,1.848492E1,4.3422318E-1,1.4366589E1,3.0150762E0,2.703396E1,9.467346E0,0E0,0E0,1.5247803E1,8.514653E0,7.9395604E-1,7.354028E-1,0E0,0E0,0E0,0E0,0E0,0E0,0E0,0E0,0E0,0E0,0E0,0E0],"parents":[2147483647,0,0,1,1,2,2,3,3,4,4,5,5,6,6,7,7,8,8,11,11,12,12,13,13,14,14],"right_children":[2,4,6,8,10,12,14,16,18,-1,-1,20,22,24,26,-1,-1,-1,-1,-1,-1,-1,-1,-1,-1,-1,-1],"split_conditions":[5.005E1,2.3E1,2.1325E2,1.7805E2,2.19E2,1.195E1,1.2695E2,1.235E1,5.4E0,-1.632873E-1,3.4700852E-4,1.8095E2,1.4865E2,2.3745E2,1.71E2,2.0186505E-1,-5.944213E-2,-8.605175E-2,4.679655E-2,2.4448057E-1,-1.1149435E-2,5.272337E-2,-7.806066E-2,3.4995977E-2,-1.0914563E-2,-6.739531E-2,4.726164E-3],"split_indices":[5,5,2,2,2,4,5,4,4,0,0,5,2,2,5,0,0,0,0,0,0,0,0,0,0,0,0],"split_type":[0,0,0,0,0,0,0,0,0,0,0,0,0,0,0,0,0,0,0,0,0,0,0,0,0,0,0],"sum_hessian":[1.234E3,6.73E2,5.61E2,6.17E2,5.6E1,5.25E2,3.6E1,2.5E2,3.67E2,5E1,6E0,4.52E2,7.3E1,1.5E1,2.1E1,1.96E2,5.4E1,2.57E2,1.1E2,2.73E2,1.79E2,1.7E1,5.6E1,1.1E1,4E0,1.3E1,8E0],"tree_param":{"num_deleted":"0","num_feature":"6","num_nodes":"27","size_leaf_vector":"0"}},{"base_weights":[8.29986E-2,-8.414171E-2,1.8135644E-1,3.3783015E-2,-1.13805406E-1,-1.6427515E-2,2.2062208E-1,5.678358E-2,-2.3468586E-2,3.1027757E-2,-1.4525707E-1,-6.593651E-2,4.951052E-2,-9.128822E-3,2.2988476E-1,-1.5858408E-2,7.319321E-2,-2.0466853E-2,5.2528895E-2,-1.7857577E-1,3.147996E-2,-1.0634076E-1,3.6834214E-2,6.922716E-2,-1.8476289E-2,8.159862E-3,-1.773732E-2,9.568943E-5,2.3056957E-1],"categories":[],"categories_nodes":[],"categories_segments":[],"categories_sizes":[],"default_left":[1,1,1,1,1,1,1,1,0,1,1,1,1,1,1,0,0,0,0,0,0,0,0,0,0,0,0,1,1],"id":53,"left_children":[1,3,5,7,9,11,13,15,-1,17,19,21,23,25,-1,-1,-1,-1,-1,-1,-1,-1,-1,-1,-1,-1,-1,-1,-1],"loss_changes":[5.1820515E1,9.145817E0,1.7060787E1,2.7582839E0,1.1096336E1,7.2326336E0,5.40963E0,2.4553294E0,0E0,2.2835789E0,1.3686001E1,8.627305E0,2.7615287E0,3.0103132E-1,9.6443176E-2,0E0,0E0,0E0,0E0,0E0,0E0,0E0,0E0,0E0,0E0,0E0,0E0,0E0,0E0],"parents":[2147483647,0,0,1,1,2,2,3,3,4,4,5,5,6,6,7,7,9,9,10,10,11,11,12,12,13,13,14,14],"right_children":[2,4,6,8,10,12,14,16,-1,18,20,22,24,26,-1,-1,-1,-1,-1,-1,-1,-1,-1,-1,-1,-1,-1,-1,-1],"split_conditions":[2.3805E2,5E0,1.05E1,2.007E2,1.465E2,1.8585E2,1.4265E2,1.5875E2,-2.3468586E-2,1.918E2,7.3E1,3.7725E2,3.79E2,1.268E2,2.2988476E-1,-1.5858408E-2,7.319321E-2,-2.0466853E-2,5.2528895E-2,-1.7857577E-1,3.147996E-2,-1.0634076E-1,3.6834214E-2,6.922716E-2,-1.8476289E-2,8.159862E-3,-1.773732E-2,9.568943E-5,2.3056957E-1],"split_indices":[1,0,0,2,1,2,2,2,0,2,0,1,1,2,1,0,0,0,0,0,0,0,0,0,0,0,0,2147483647,2147483647],"split_type":[0,0,0,0,0,0,0,0,0,0,0,0,0,0,0,0,0,0,0,0,0,0,0,0,0,0,0,0,0],"sum_hessian":[1.221E3,5.04E2,7.17E2,7E1,4.34E2,2.13E2,5.04E2,6.2E1,8E0,7.7E1,3.57E2,1.26E2,8.7E1,1.8E1,4.86E2,1.2E1,5E1,3E1,4.7E1,2.94E2,6.3E1,6.9E1,5.7E1,5.9E1,2.8E1,4E0,1.4E1,7E0,4.79E2],"tree_param":{"num_deleted":"2","num_feature":"6","num_nodes":"29","size_leaf_vector":"0"}},{"base_weights":[2.3821546E-2,7.111585E-2,-8.376844E-2,-1.9776978E-2,1.5735999E-1,-1.1421456E-1,3.0983767E-2,9.314208E-2,-1.5463556E-1,-5.0036725E-2,2.144488E-1,1.0176852E-2,-1.2823394E-1,4.250485E-2,-1.0427629E-2,1.4235967E-1,-5.1199526E-2,-1.9087082E-1,3.984044E-2,-6.145655E-2,1.1382179E-2,-1.1471613E-2,2.2319568E-2,-1.3486078E-1,5.123784E-3,2.3059712E-3,-1.32969115E-2],"categories":[],"categories_nodes":[],"categories_segments":[],"categories_sizes":[],"default_left":[1,1,1,1,1,1,1,1,1,1,0,1,1,0,1,0,0,0,0,0,0,0,0,0,0,1,1],"id":54,"left_children":[1,3,5,7,9,11,13,15,17,19,-1,21,23,-1,-1,-1,-1,-1,-1,-1,-1,-1,-1,-1,-1,-1,-1],"loss_changes":[1.7333675E1,1.9627064E1,7.559805E0,4.3473816E1,2.4913998E1,3.3119698E0,9.4686395E-1,1.9127209E1,1.6467365E1,1.4722314E0,0E0,5.338E-1,1.7111893E0,0E0,7.327865E-2,0E0,0E0,0E0,0E0,0E0,0E0,0E0,0E0,0E0,0E0,0E0,0E0],"parents":[2147483647,0,0,1,1,2,2,3,3,4,4,5,5,6,6,7,7,8,8,9,9,11,11,12,12,14,14],"right_children":[2,4,6,8,10,12,14,16,18,20,-1,22,24,-1,-1,-1,-1,-1,-1,-1,-1,-1,-1,-1,-1,-1,-1],"split_conditions":[1.205E1,1.025E1,1.646E2,1.381E2,2.1E1,2.1E1,1.895E2,4.2E1,2.804E2,1.195E1,2.144488E-1,5E0,2.275E1,4.250485E-2,-1.0427629E-2,1.4235967E-1,-5.1199526E-2,-1.9087082E-1,3.984044E-2,-6.145655E-2,1.1382179E-2,-1.1471613E-2,2.2319568E-2,-1.3486078E-1,5.123784E-3,2.3059712E-3,-1.32969115E-2],"split_indices":[4,4,5,5,0,0,5,0,5,4,0,0,4,0,4,0,0,0,0,0,0,0,0,0,0,2147483647,2147483647],"split_type":[0,0,0,0,0,0,0,0,0,0,0,0,0,0,0,0,0,0,0,0,0,0,0,0,0,0,0],"sum_hessian":[1.237E3,1.098E3,1.39E2,9.07E2,1.91E2,1.17E2,2.2E1,6.6E2,2.47E2,6.6E1,1.25E2,3.6E1,8.1E1,6E0,1.6E1,5.05E2,1.55E2,2.26E2,2.1E1,6.2E1,4E0,1.8E1,1.8E1,7E1,1.1E1,7E0,9E0],"tree_param":{"num_deleted":"2","num_feature":"6","num_nodes":"27","size_leaf_vector":"0"}},{"base_weights":[1.1025054E-2,-6.61521E-2,1.5616296E-1,-1.7452699E-1,1.17455825E-1,1.8131492E-1,-2.2263205E-2,-2.269146E-1,7.7740446E-2,-6.2081963E-2,1.8218637E-1,-8.147156E-3,1.9237274E-1,1.5418853E-2,-2.4453339E-1,8.465426E-2,-6.277185E-3,-8.1920125E-2,1.8584572E-2,2.1514681E-1,-3.7742037E-2,7.2534536E-3,-1.592303E-2],"categories":[],"categories_nodes":[],"categories_segments":[],"categories_sizes":[],"default_left":[1,1,1,1,1,1,0,1,1,1,1,1,0,0,0,0,0,0,0,0,0,0,0],"id":55,"left_children":[1,3,5,7,9,11,-1,13,15,17,19,21,-1,-1,-1,-1,-1,-1,-1,-1,-1,-1,-1],"loss_changes":[3.5388084E1,6.346868E1,8.940525E0,4.098785E1,2.7605879E1,3.8675728E0,0E0,1.1207382E1,1.1781807E0,3.3368254E0,1.7509174E1,2.4138126E-1,0E0,0E0,0E0,0E0,0E0,0E0,0E0,0E0,0E0,0E0,0E0],"parents":[2147483647,0,0,1,1,2,2,3,3,4,4,5,5,7,7,8,8,9,9,10,10,11,11],"right_children":[2,4,6,8,10,12,-1,14,16,18,20,22,-1,-1,-1,-1,-1,-1,-1,-1,-1,-1,-1],"split_conditions":[4.5055E2,1.218E2,1.975E2,2.0785E2,1.551E2,1.44E2,-2.2263205E-2,1.5245E2,4.0375E2,2.05E2,2.085E2,1.409E2,1.9237274E-1,1.5418853E-2,-2.4453339E-1,8.465426E-2,-6.277185E-3,-8.1920125E-2,1.8584572E-2,2.1514681E-1,-3.7742037E-2,7.2534536E-3,-1.592303E-2],"split_indices":[1,5,2,2,1,2,0,2,1,5,2,2,0,0,0,0,0,0,0,0,0,0,0],"split_type":[0,0,0,0,0,0,0,0,0,0,0,0,0,0,0,0,0,0,0,0,0,0,0],"sum_hessian":[1.233E3,1.158E3,7.5E1,7.61E2,3.97E2,5.4E1,2.1E1,7.15E2,4.6E1,1.14E2,2.83E2,1.5E1,3.9E1,5.5E1,6.6E2,4.1E1,5E0,8.4E1,3E1,2.67E2,1.6E1,6E0,9E0],"tree_param":{"num_deleted":"0","num_feature":"6","num_nodes":"23","size_leaf_vector":"0"}},{"base_weights":[4.834344E-2,-9.322968E-2,1.0339985E-1,-1.0852088E-1,1.3633962E-2,-4.664072E-2,1.2923959E-1,2.8442806E-2,-1.4508734E-2,1.4887333E-1,-9.284672E-3,-2.391712E-3,1.5176497E-1,4.960144E-2,-6.2822565E-2],"categories":[],"categories_nodes":[],"categories_segments":[],"categories_sizes":[],"default_left":[1,1,1,0,1,0,1,0,0,1,1,0,0,0,0],"id":56,"left_children":[1,3,5,-1,7,-1,9,-1,-1,11,13,-1,-1,-1,-1],"loss_changes":[2.7034569E1,3.4029293E0,1.4144934E1,0E0,8.480663E-1,0E0,7.0139236E0,0E0,0E0,1.2481766E0,6.880645E0,0E0,0E0,0E0,0E0],"parents":[2147483647,0,0,1,1,2,2,4,4,6,6,9,9,10,10],"right_children":[2,4,6,-1,8,-1,10,-1,-1,12,14,-1,-1,-1,-1],"split_conditions":[1.551E2,2.05E2,1.4265E2,-1.0852088E-1,1.4975E2,-4.664072E-2,1.951E2,2.8442806E-2,-1.4508734E-2,1.599E2,3.2E2,-2.391712E-3,1.5176497E-1,4.960144E-2,-6.2822565E-2],"split_indices":[1,5,2,0,1,0,2,0,0,1,1,0,0,0,0],"split_type":[0,0,0,0,0,0,0,0,0,0,0,0,0,0,0],"sum_hessian":[1.231E3,1.48E2,1.083E3,1.2E2,2.8E1,3.8E1,1.045E3,2.3E1,5E0,8.53E2,1.92E2,1.6E1,8.37E2,1.22E2,7E1],"tree_param":{"num_deleted":"0","num_feature":"6","num_nodes":"15","size_leaf_vector":"0"}},{"base_weights":[1.4616628E-2,-6.685738E-2,1.6283405E-1,-1.2860306E-1,1.0981611E-1,1.743382E-1,-9.7158495E-3,3.5495266E-2,-1.6117556E-1,-5.139322E-3,1.1711413E-1,1.8184708E-3,-1.2061691E-2,1.0243817E-1,-6.531128E-2,-2.0293383E-1,2.584561E-2,1.097764E-2,-1.6729236E-2,1.229731E-1,-4.7589634E-3],"categories":[],"categories_nodes":[],"categories_segments":[],"categories_sizes":[],"default_left":[1,1,1,1,1,0,1,1,1,1,1,1,1,0,0,0,0,0,0,0,0],"id":57,"left_children":[1,3,5,7,9,-1,-1,13,15,17,19,-1,-1,-1,-1,-1,-1,-1,-1,-1,-1],"loss_changes":[3.771892E1,3.745515E1,3.92E0,1.6725212E1,1.5731659E0,0E0,5.4437824E-2,1.4509948E1,2.0101597E1,3.768666E-1,1.4097939E0,0E0,0E0,0E0,0E0,0E0,0E0,0E0,0E0,0E0,0E0],"parents":[2147483647,0,0,1,1,2,2,3,3,4,4,6,6,7,7,8,8,9,9,10,10],"right_children":[2,4,6,8,10,-1,-1,14,16,18,20,-1,-1,-1,-1,-1,-1,-1,-1,-1,-1],"split_conditions":[4.5055E2,9.05E1,1.975E1,5E0,2.0335E2,1.743382E-1,-9.7158495E-3,8.15E0,1.015E1,1.8615E2,4.134E2,1.8184708E-3,-1.2061691E-2,1.0243817E-1,-6.531128E-2,-2.0293383E-1,2.584561E-2,1.097764E-2,-1.6729236E-2,1.229731E-1,-4.7589634E-3],"split_indices":[1,0,4,0,1,0,1,4,4,1,1,2147483647,2147483647,0,0,0,0,0,0,0,0],"split_type":[0,0,0,0,0,0,0,0,0,0,0,0,0,0,0,0,0,0,0,0,0],"sum_hessian":[1.218E3,1.138E3,8E1,1.047E3,9.1E1,6.8E1,1.2E1,1.56E2,8.91E2,1.9E1,7.2E1,4E0,8E0,8.7E1,6.9E1,6.61E2,2.3E2,1.2E1,7E0,6.4E1,8E0],"tree_param":{"num_deleted":"2","num_feature":"6","num_nodes":"21","size_leaf_vector":"0"}},{"base_weights":[6.2930085E-2,-4.8518617E-2,1.4147103E-1,8.237997E-2,-1.2782158E-1,-6.9462E-2,2.141176E-1,1.5522277E-1,-8.256501E-2,-2.0484564E-1,5.3122494E-2,3.5624124E-2,-1.1236056E-1,5.5591236E-3,2.4580804E-1,1.6519499E-1,-1.04725E-2,-2.1121806E-1,4.2137094E-3,7.415408E-2,-2.4175234E-2,-8.633206E-3,4.4580836E-2,1.30206E-1,-1.3796785E-1],"categories":[],"categories_nodes":[],"categories_segments":[],"categories_sizes":[],"default_left":[1,1,1,1,1,1,1,1,0,1,1,1,0,1,0,0,0,0,0,0,0,0,0,0,0],"id":58,"left_children":[1,3,5,7,9,11,13,15,-1,17,19,21,-1,23,-1,-1,-1,-1,-1,-1,-1,-1,-1,-1,-1],"loss_changes":[2.6517815E1,2.7867575E1,3.9034004E1,2.769089E1,3.0929564E1,9.252413E0,7.866623E0,3.8001041E0,0E0,2.6094933E0,3.8010273E0,8.353219E-1,0E0,3.9643272E1,0E0,0E0,0E0,0E0,0E0,0E0,0E0,0E0,0E0,0E0,0E0],"parents":[2147483647,0,0,1,1,2,2,3,3,4,4,5,5,6,6,7,7,9,9,10,10,11,11,13,13],"right_children":[2,4,6,8,10,12,14,16,-1,18,20,22,-1,24,-1,-1,-1,-1,-1,-1,-1,-1,-1,-1,-1],"split_conditions":[5.4199997E1,2.1E1,2.1E1,2.1E1,9.72E1,1.7945E2,1.521E2,1.7329999E2,-8.256501E-2,9.55E1,3.405E1,9.425E1,-1.1236056E-1,1.381E2,2.4580804E-1,1.6519499E-1,-1.04725E-2,-2.1121806E-1,4.2137094E-3,7.415408E-2,-2.4175234E-2,-8.633206E-3,4.4580836E-2,1.30206E-1,-1.3796785E-1],"split_indices":[5,0,0,5,3,5,5,3,0,0,5,5,0,5,0,0,0,0,0,0,0,0,0,0,0],"split_type":[0,0,0,0,0,0,0,0,0,0,0,0,0,0,0,0,0,0,0,0,0,0,0,0,0],"sum_hessian":[1.24E3,6.68E2,5.72E2,2.35E2,4.33E2,1.56E2,4.16E2,2.06E2,2.9E1,2.13E2,2.2E2,9.1E1,6.5E1,2.12E2,2.04E2,2E2,6E0,1.99E2,1.4E1,2.1E2,1E1,1.2E1,7.9E1,1.65E2,4.7E1],"tree_param":{"num_deleted":"0","num_feature":"6","num_nodes":"25","size_leaf_vector":"0"}},{"base_weights":[1.4162688E-2,-5.5452682E-2,1.4048496E-1,-1.5937245E-1,1.0006079E-1,1.7678119E-1,-3.406139E-2,6.561076E-2,-2.0336716E-1,-5.9944876E-2,1.546812E-1,-8.654189E-3,1.8841377E-1,-5.7526506E-3,7.2370484E-2,-2.52842E-1,5.3602953E-2,-8.724873E-2,2.6637154E-2,1.794333E-1,-2.4334101E-2,4.6654693E-3,-1.386599E-2],"categories":[],"categories_nodes":[],"categories_segments":[],"categories_sizes":[],"default_left":[1,1,1,1,1,1,0,1,1,1,1,1,0,0,0,0,0,0,0,0,0,1,1],"id":59,"left_children":[1,3,5,7,9,11,-1,13,15,17,19,-1,-1,-1,-1,-1,-1,-1,-1,-1,-1,-1,-1],"loss_changes":[2.7496103E1,5.081954E1,1.2934977E1,3.004071E1,2.2219326E1,4.002651E0,0E0,9.4601774E-1,3.464279E1,4.940605E0,1.0567551E1,1.3982171E-1,0E0,0E0,0E0,0E0,0E0,0E0,0E0,0E0,0E0,0E0,0E0],"parents":[2147483647,0,0,1,1,2,2,3,3,4,4,5,5,7,7,8,8,9,9,10,10,11,11],"right_children":[2,4,6,8,10,12,-1,14,16,18,20,-1,-1,-1,-1,-1,-1,-1,-1,-1,-1,-1,-1],"split_conditions":[4.5055E2,9.405E1,1.975E2,1.494E2,1.5875E2,1.44E2,-3.406139E-2,1.36E2,2.0325E2,2.5205E2,2.991E2,-8.654189E-3,1.8841377E-1,-5.7526506E-3,7.2370484E-2,-2.52842E-1,5.3602953E-2,-8.724873E-2,2.6637154E-2,1.794333E-1,-2.4334101E-2,4.6654693E-3,-1.386599E-2],"split_indices":[1,3,2,2,2,2,0,2,2,1,1,2,0,0,0,0,0,0,0,0,0,2147483647,2147483647],"split_type":[0,0,0,0,0,0,0,0,0,0,0,0,0,0,0,0,0,0,0,0,0,0,0],"sum_hessian":[1.236E3,1.156E3,8E1,6.8E2,4.76E2,5.8E1,2.2E1,2.9E1,6.51E2,9.4E1,3.82E2,1.6E1,4.2E1,9E0,2E1,5.61E2,9E1,7E1,2.4E1,3.36E2,4.6E1,7E0,9E0],"tree_param":{"num_deleted":"2","num_feature":"6","num_nodes":"23","size_leaf_vector":"0"}},{"base_weights":[7.327089E-2,-7.463277E-2,1.5822639E-1,4.539253E-2,-1.2573816E-1,2.3201324E-1,-8.9332454E-2,-1.3858024E-2,5.9677374E-2,1.6995216E-2,-1.4377049E-1,-1.1422148E-1,2.0690365E-2,-2.3300912E-2,8.710312E-3,7.2039716E-2,-1.30223585E-2,-1.7886402E-2,3.5065606E-2,1.5890727E-2,-1.5886635E-1,-1.21104576E-1,6.0879877E-3,4.080513E-2,-1.8012416E-2],"categories":[],"categories_nodes":[],"categories_segments":[],"categories_sizes":[],"default_left":[1,1,1,1,1,0,1,1,1,1,1,1,1,0,0,0,0,0,0,0,0,0,0,0,0],"id":60,"left_children":[1,3,5,7,9,-1,11,13,15,17,19,21,23,-1,-1,-1,-1,-1,-1,-1,-1,-1,-1,-1,-1],"loss_changes":[3.9632385E1,1.48505125E1,5.2344048E1,1.8444226E0,5.8759212E0,0E0,5.4687996E0,4.3039638E-1,1.9939952E0,1.2900641E0,5.659384E0,1.679203E0,1.563039E0,0E0,0E0,0E0,0E0,0E0,0E0,0E0,0E0,0E0,0E0,0E0,0E0],"parents":[2147483647,0,0,1,1,2,2,3,3,4,4,6,6,7,7,8,8,9,9,10,10,11,11,12,12],"right_children":[2,4,6,8,10,-1,12,14,16,18,20,22,24,-1,-1,-1,-1,-1,-1,-1,-1,-1,-1,-1,-1],"split_conditions":[2.3805E2,4.55E0,1.205E1,1.3765E2,8.5E0,2.3201324E-1,3.8925E2,1.75E1,2.3675E2,1.712E2,1.425E2,2.275E1,3.9345E2,-2.3300912E-2,8.710312E-3,7.2039716E-2,-1.30223585E-2,-1.7886402E-2,3.5065606E-2,1.5890727E-2,-1.5886635E-1,-1.21104576E-1,6.0879877E-3,4.080513E-2,-1.8012416E-2],"split_indices":[1,4,4,1,0,0,1,0,1,1,1,4,1,0,0,0,0,0,0,0,0,0,0,0,0],"split_type":[0,0,0,0,0,0,0,0,0,0,0,0,0,0,0,0,0,0,0,0,0,0,0,0,0],"sum_hessian":[1.211E3,4.84E2,7.27E2,1.75E2,3.09E2,6.1E2,1.17E2,3.3E1,1.42E2,3.8E1,2.71E2,6.8E1,4.9E1,1.6E1,1.7E1,1.35E2,7E0,7E0,3.1E1,1.6E1,2.55E2,6.2E1,6E0,5E0,4.4E1],"tree_param":{"num_deleted":"0","num_feature":"6","num_nodes":"25","size_leaf_vector":"0"}},{"base_weights":[-0E0,-5.7378672E-2,1.2318106E-1,-1.03289954E-1,7.225086E-2,-9.688441E-3,1.3411373E-1,-1.5860136E-1,3.2276977E-2,9.3484305E-2,-2.2434482E-2,3.8075075E-2,-1.9733259E-1,9.713792E-2,-7.958536E-2,-2.8954474E-3,9.7583406E-2,-3.2085076E-2,8.926252E-3],"categories":[],"categories_nodes":[],"categories_segments":[],"categories_sizes":[],"default_left":[1,1,1,1,1,0,0,1,1,1,1,0,0,0,0,0,0,0,0],"id":61,"left_children":[1,3,5,7,9,-1,-1,11,13,15,17,-1,-1,-1,-1,-1,-1,-1,-1],"loss_changes":[2.2793997E1,2.0595322E1,2.8490467E0,2.049406E1,4.468993E0,0E0,0E0,1.9948704E1,1.804234E1,7.8303814E-1,6.051684E-1,0E0,0E0,0E0,0E0,0E0,0E0,0E0,0E0],"parents":[2147483647,0,0,1,1,2,2,3,3,4,4,7,7,8,8,9,9,10,10],"right_children":[2,4,6,8,10,-1,-1,12,14,16,18,-1,-1,-1,-1,-1,-1,-1,-1],"split_conditions":[5.19E2,7.3E1,1.439E2,1.8575E2,2.213E2,-9.688441E-3,1.3411373E-1,1.5520001E2,3.7E2,1.55E2,3.3725E2,3.8075075E-2,-1.9733259E-1,9.713792E-2,-7.958536E-2,-2.8954474E-3,9.7583406E-2,-3.2085076E-2,8.926252E-3],"split_indices":[1,0,2,2,2,0,0,2,1,1,1,0,0,0,0,0,0,0,0],"split_type":[0,0,0,0,0,0,0,0,0,0,0,0,0,0,0,0,0,0,0],"sum_hessian":[1.228E3,1.204E3,2.4E1,1.042E3,1.62E2,7E0,1.7E1,6.22E2,4.2E2,1.47E2,1.5E1,1.03E2,5.19E2,3.52E2,6.8E1,1.3E1,1.34E2,6E0,9E0],"tree_param":{"num_deleted":"0","num_feature":"6","num_nodes":"19","size_leaf_vector":"0"}},{"base_weights":[3.9709885E-2,-2.6617767E-2,1.2143941E-1,-1.0770086E-1,6.926621E-2,1.511672E-1,-2.694926E-2,-1.599445E-1,7.224078E-2,1.22426815E-1,-6.767966E-2,3.273927E-2,-6.0005844E-2,5.1748375E-3,-1.6996633E-1,-1.470059E-2,1.692447E-1,-8.54022E-2,1.6561255E-2],"categories":[],"categories_nodes":[],"categories_segments":[],"categories_sizes":[],"default_left":[1,1,1,1,1,0,1,1,0,1,1,0,0,0,0,0,0,0,0],"id":62,"left_children":[1,3,5,7,9,-1,11,13,-1,15,17,-1,-1,-1,-1,-1,-1,-1,-1],"loss_changes":[1.5281792E1,2.3331596E1,9.319191E0,2.5690178E1,1.952457E1,0E0,4.0341496E0,3.4027672E0,0E0,1.1989855E1,3.0492444E0,0E0,0E0,0E0,0E0,0E0,0E0,0E0,0E0],"parents":[2147483647,0,0,1,1,2,2,3,3,4,4,6,6,7,7,9,9,10,10],"right_children":[2,4,6,8,10,-1,12,14,-1,16,18,-1,-1,-1,-1,-1,-1,-1,-1],"split_conditions":[3.8925E2,1.225E1,6.95E1,2.778E2,2.9805E2,1.511672E-1,4.35E2,1.47E2,7.224078E-2,4.765E1,3.72E2,3.273927E-2,-6.0005844E-2,5.1748375E-3,-1.6996633E-1,-1.470059E-2,1.692447E-1,-8.54022E-2,1.6561255E-2],"split_indices":[1,3,3,5,1,0,1,1,0,5,1,0,0,0,0,0,0,0,0],"split_type":[0,0,0,0,0,0,0,0,0,0,0,0,0,0,0,0,0,0,0],"sum_hessian":[1.214E3,1.039E3,1.75E2,4.99E2,5.4E2,1.33E2,4.2E1,4.75E2,2.4E1,4.68E2,7.2E1,1.3E1,2.9E1,5.2E1,4.23E2,2.91E2,1.77E2,5.3E1,1.9E1],"tree_param":{"num_deleted":"0","num_feature":"6","num_nodes":"19","size_leaf_vector":"0"}},{"base_weights":[6.1644536E-2,9.757468E-2,-5.8759876E-2,-4.8136838E-2,1.4685075E-1,2.2697242E-2,-8.267517E-2,3.5270732E-2,-9.670373E-2,1.8596557E-1,-3.2856073E-2,-4.2281844E-2,6.498705E-2,-9.934155E-2,1.6952302E-2,-2.8409135E-2,6.0925025E-2,-1.0321857E-1,4.2785797E-3,-7.871966E-3,1.915466E-1,2.9778967E-2,-6.676409E-2,7.544604E-2,-9.225325E-3],"categories":[],"categories_nodes":[],"categories_segments":[],"categories_sizes":[],"default_left":[1,1,1,1,1,1,1,1,1,1,1,0,1,0,0,0,0,0,0,0,0,0,0,0,0],"id":63,"left_children":[1,3,5,7,9,11,13,15,17,19,21,-1,23,-1,-1,-1,-1,-1,-1,-1,-1,-1,-1,-1,-1],"loss_changes":[1.5391543E1,2.2160578E1,4.1136513E0,8.626612E0,1.8944649E1,5.6087523E0,3.545094E0,3.7074797E0,1.2016125E0,3.3771057E0,4.4957857E0,0E0,1.5262675E0,0E0,0E0,0E0,0E0,0E0,0E0,0E0,0E0,0E0,0E0,0E0,0E0],"parents":[2147483647,0,0,1,1,2,2,3,3,4,4,5,5,6,6,7,7,8,8,9,9,10,10,12,12],"right_children":[2,4,6,8,10,12,14,16,18,20,22,-1,24,-1,-1,-1,-1,-1,-1,-1,-1,-1,-1,-1,-1],"split_conditions":[1.205E1,1.9135E2,1.4885E2,8.15E0,1.951E2,1.365E1,1.8E2,1.639E2,1.085E1,1.404E2,3.2E2,-4.2281844E-2,4.2945E2,-9.934155E-2,1.6952302E-2,-2.8409135E-2,6.0925025E-2,-1.0321857E-1,4.2785797E-3,-7.871966E-3,1.915466E-1,2.9778967E-2,-6.676409E-2,7.544604E-2,-9.225325E-3],"split_indices":[4,1,2,4,2,4,2,2,4,2,1,0,1,0,0,0,0,0,0,0,0,0,0,0,0],"split_type":[0,0,0,0,0,0,0,0,0,0,0,0,0,0,0,0,0,0,0,0,0,0,0,0,0],"sum_hessian":[1.228E3,1.095E3,1.33E2,2.8E2,8.15E2,3.7E1,9.6E1,2E2,8E1,6.43E2,1.72E2,1E1,2.7E1,8.9E1,7E0,2.1E1,1.79E2,5.9E1,2.1E1,4E0,6.39E2,9.8E1,7.4E1,1.5E1,1.2E1],"tree_param":{"num_deleted":"0","num_feature":"6","num_nodes":"25","size_leaf_vector":"0"}},{"base_weights":[-3.7428856E-2,-9.320169E-2,1.1880736E-1,-1.436288E-1,7.4227124E-2,-1.0607794E-2,1.3059705E-1,3.5912447E-2,-1.6959989E-1,8.923833E-2,-1.5271434E-2,-4.9097583E-2,8.401006E-2,6.475064E-3,-2.114805E-1,-3.2152245E-3,9.34705E-2,4.4458886E-3,-2.045292E-2],"categories":[],"categories_nodes":[],"categories_segments":[],"categories_sizes":[],"default_left":[1,1,1,1,1,0,0,1,1,1,1,0,0,0,0,0,0,0,0],"id":64,"left_children":[1,3,5,7,9,-1,-1,11,13,15,17,-1,-1,-1,-1,-1,-1,-1,-1],"loss_changes":[3.0561584E1,2.9371664E1,3.0107765E0,1.5683857E1,2.9703112E0,0E0,0E0,8.562118E0,1.593988E1,7.9640865E-1,2.0283678E-1,0E0,0E0,0E0,0E0,0E0,0E0,0E0,0E0],"parents":[2147483647,0,0,1,1,2,2,3,3,4,4,7,7,8,8,9,9,10,10],"right_children":[2,4,6,8,10,-1,-1,12,14,16,18,-1,-1,-1,-1,-1,-1,-1,-1],"split_conditions":[5.19E2,7.3E1,1.439E2,1.5395E2,4.134E2,-1.0607794E-2,1.3059705E-1,2.5205E2,2.1375E2,1.55E2,1.96E2,-4.9097583E-2,8.401006E-2,6.475064E-3,-2.114805E-1,-3.2152245E-3,9.34705E-2,4.4458886E-3,-2.045292E-2],"split_indices":[1,0,2,2,1,0,0,1,1,1,2,0,0,0,0,0,0,0,0],"split_type":[0,0,0,0,0,0,0,0,0,0,0,0,0,0,0,0,0,0,0],"sum_hessian":[1.238E3,1.212E3,2.6E1,1.043E3,1.69E2,7E0,1.9E1,8.1E1,9.62E2,1.52E2,1.7E1,1.8E1,6.3E1,3.45E2,6.17E2,1.2E1,1.4E2,1.3E1,4E0],"tree_param":{"num_deleted":"0","num_feature":"6","num_nodes":"19","size_leaf_vector":"0"}},{"base_weights":[6.712724E-2,-4.2641226E-2,8.753994E-2,1.0336837E-1,-4.715668E-3,3.1224967E-3,1.1662723E-1,3.3846643E-2,-4.5687813E-2,9.100655E-2,-8.360505E-2,-1.707152E-2,1.8396649E-1,7.655624E-2,-4.245971E-2,-7.008085E-2,2.2724144E-2],"categories":[],"categories_nodes":[],"categories_segments":[],"categories_sizes":[],"default_left":[1,0,1,1,1,1,1,1,1,0,0,0,0,0,0,0,0],"id":65,"left_children":[1,-1,3,5,7,9,11,13,15,-1,-1,-1,-1,-1,-1,-1,-1],"loss_changes":[8.776601E0,0E0,3.7800179E0,2.1598186E0,3.569935E0,1.7208366E1,1.8394384E1,7.263156E0,3.3700879E0,0E0,0E0,0E0,0E0,0E0,0E0,0E0,0E0],"parents":[2147483647,0,0,2,2,3,3,4,4,5,5,6,6,7,7,8,8],"right_children":[2,-1,4,6,8,10,12,14,16,-1,-1,-1,-1,-1,-1,-1,-1],"split_conditions":[1.389E2,-4.2641226E-2,1.9295E2,1.05E1,4.2E1,1.43E1,1.2605E2,1.381E2,1.85E1,9.100655E-2,-8.360505E-2,-1.707152E-2,1.8396649E-1,7.655624E-2,-4.245971E-2,-7.008085E-2,2.2724144E-2],"split_indices":[2,0,2,0,0,5,5,5,5,0,0,0,0,0,0,0,0],"split_type":[0,0,0,0,0,0,0,0,0,0,0,0,0,0,0,0,0],"sum_hessian":[1.241E3,2E1,1.221E3,9.44E2,2.77E2,2.59E2,6.85E2,2.26E2,5.1E1,1.07E2,1.52E2,4.77E2,2.08E2,1.47E2,7.9E1,2.5E1,2.6E1],"tree_param":{"num_deleted":"0","num_feature":"6","num_nodes":"17","size_leaf_vector":"0"}},{"base_weights":[6.842904E-2,1.0689053E-1,-1.8370759E-2,-3.596545E-2,1.292631E-1,-1.09959714E-1,7.777142E-2,1.833984E-1,4.193815E-3,-1.5227857E-1,2.7334481E-2,1.4915466E-1,-5.6410216E-2,2.1220246E-1,-2.0219875E-2,-8.7425366E-2,7.369536E-2,6.797028E-2,-4.3115474E-2,1.6680308E-1,-6.856613E-3,4.7063973E-2,-1.0002409E-1],"categories":[],"categories_nodes":[],"categories_segments":[],"categories_sizes":[],"default_left":[1,1,1,0,1,1,1,1,1,0,1,1,1,0,0,0,0,0,0,0,0,0,0],"id":66,"left_children":[1,3,5,-1,7,9,11,13,15,-1,17,19,21,-1,-1,-1,-1,-1,-1,-1,-1,-1,-1],"loss_changes":[9.419278E0,1.0093792E1,2.2049131E1,0E0,1.0518549E1,1.1202898E1,2.1199387E1,1.1113892E1,1.6203993E1,0E0,6.1722264E0,4.3762627E0,1.0081809E1,0E0,0E0,0E0,0E0,0E0,0E0,0E0,0E0,0E0,0E0],"parents":[2147483647,0,0,1,1,2,2,4,4,5,5,6,6,7,7,8,8,10,10,11,11,12,12],"right_children":[2,4,6,-1,8,10,12,14,16,-1,18,20,22,-1,-1,-1,-1,-1,-1,-1,-1,-1,-1],"split_conditions":[7.95E0,1.435E2,1.025E1,-3.596545E-2,1.8245E2,8.95E1,7.87E1,6.95E0,1.862E2,-1.5227857E-1,9.95E0,1.175E1,1.5015E2,2.1220246E-1,-2.0219875E-2,-8.7425366E-2,7.369536E-2,6.797028E-2,-4.3115474E-2,1.6680308E-1,-6.856613E-3,4.7063973E-2,-1.0002409E-1],"split_indices":[4,2,4,0,2,3,3,4,2,0,4,4,2,0,0,0,0,0,0,0,0,0,0],"split_type":[0,0,0,0,0,0,0,0,0,0,0,0,0,0,0,0,0,0,0,0,0,0,0],"sum_hessian":[1.22E3,6.89E2,5.31E2,8E0,6.81E2,2.01E2,3.3E2,1.47E2,5.34E2,7.3E1,1.28E2,1.45E2,1.85E2,9.4E1,5.3E1,1.16E2,4.18E2,1.08E2,2E1,7.1E1,7.4E1,2.8E1,1.57E2],"tree_param":{"num_deleted":"0","num_feature":"6","num_nodes":"23","size_leaf_vector":"0"}},{"base_weights":[8.476873E-3,-4.251675E-2,7.513855E-2,5.67457E-2,-1.3985038E-1,-5.9316408E-2,1.6100144E-1,1.1349038E-1,-6.550646E-2,-1.5741386E-1,1.794714E-2,4.9315423E-2,-1.1373466E-1,-3.5865895E-2,1.9995199E-1,1.5791424E-1,-4.7999203E-2,-1.05825335E-1,3.9349917E-2,-1.6260453E-1,-4.940306E-3,-1.3421196E-2,3.1996112E-2,6.175413E-2,-1.1919602E-2,2.024066E-2,-1.3839418E-1,7.3205745E-3,-4.3794937E-2],"categories":[],"categories_nodes":[],"categories_segments":[],"categories_sizes":[],"default_left":[1,1,1,1,1,1,1,1,1,1,1,1,1,1,0,0,0,0,0,1,1,0,0,0,0,0,0,0,0],"id":67,"left_children":[1,3,5,7,9,11,13,15,17,-1,21,23,25,27,-1,-1,-1,-1,-1,-1,-1,-1,-1,-1,-1,-1,-1,-1,-1],"loss_changes":[1.0798241E1,2.6324787E1,2.4989943E1,1.889772E1,6.359207E0,1.3018703E1,1.5573381E1,